{"learner":{"attributes":{"best_iteration":"99","best_ntree_limit":"100","scikit_learn":"{\"n_estimators\": 100, \"objective\": \"reg:squarederror\", \"max_depth\": null, \"max_leaves\": null, \"max_bin\": null, \"grow_policy\": null, \"learning_rate\": null, \"verbosity\": null, \"booster\": null, \"tree_method\": \"gpu_hist\", \"gamma\": null, \"min_child_weight\": null, \"max_delta_step\": null, \"subsample\": null, \"sampling_method\": null, \"colsample_bytree\": null, \"colsample_bylevel\": null, \"colsample_bynode\": null, \"reg_alpha\": null, \"reg_lambda\": null, \"scale_pos_weight\": null, \"base_score\": null, \"missing\": NaN, \"num_parallel_tree\": null, \"random_state\": null, \"n_jobs\": -1, \"monotone_constraints\": null, \"interaction_constraints\": null, \"importance_type\": null, \"gpu_id\": null, \"validate_parameters\": null, \"predictor\": null, \"enable_categorical\": false, \"feature_types\": null, \"max_cat_to_onehot\": null, \"max_cat_threshold\": null, \"eval_metric\": null, \"early_stopping_rounds\": null, \"callbacks\": null, \"_estimator_type\": \"regressor\"}"},"feature_names":["amt","zip","city_pop","age","delta_time","distance","gas_transport","grocery_pos","home","shopping_pos","kids_pets","shopping_net","entertainment","food_dining","personal_care","health_fitness","misc_pos","misc_net","grocery_net","travel","work_hours","weekend","F","M","hour","weekday"],"feature_types":["float","int","int","int","int","float","int","int","int","int","int","int","int","int","int","int","int","int","int","int","int","int","int","int","int","int"],"gradient_booster":{"model":{"gbtree_model_param":{"num_parallel_tree":"1","num_trees":"100","size_leaf_vector":"0"},"tree_info":[0,0,0,0,0,0,0,0,0,0,0,0,0,0,0,0,0,0,0,0,0,0,0,0,0,0,0,0,0,0,0,0,0,0,0,0,0,0,0,0,0,0,0,0,0,0,0,0,0,0,0,0,0,0,0,0,0,0,0,0,0,0,0,0,0,0,0,0,0,0,0,0,0,0,0,0,0,0,0,0,0,0,0,0,0,0,0,0,0,0,0,0,0,0,0,0,0,0,0,0],"trees":[{"base_weights":[-4.947585E-1,-4.971962E-1,-1.85543E-1,-4.9858433E-1,-4.2810786E-1,-3.607432E-1,2.2979651E-1,-4.9916178E-1,-4.934712E-1,-4.8903346E-1,4.7038043E-1,-1.1525424E-1,-4.148952E-1,4.0778253E-2,4.5623004E-1,-4.9599305E-1,-1.499114E-1,-4.9395618E-1,-3.868066E-1,-4.9692595E-1,-3.850365E-1,3.975564E-1,1.4988542E-1,2.7846366E-1,-1.4979921E-1,-4.5194143E-1,-3.2596543E-1,2.6020408E-1,-2.5531915E-1,1.4989981E-1,-1.4782609E-1,-4.846326E-1,-4.9962735E-1,-4.8224178E-1,-4.9628398E-1,-4.875954E-1,-1.7361112E-2,-1.4984688E-1,-4.0915394E-1,-4.7931713E-1,-2.1464646E-2,1.4951299E-1,2.5777778E-1,4.4770408E-1,8.136094E-2,-4.60561E-1,-3.8489872E-1,-4.813008E-1,-2.5516987E-1,4.737443E-1,1.1388455E-1,2.361809E-1,-4.1763726E-1,-1.4893287E-1,1.356021E-1,-1.4992756E-1,-1.4166667E-1,-1.4585632E-1,-1.3843775E-1,-1.4921111E-1,-1.4659831E-1,-1.4971043E-1,1.2857144E-1,3.4722224E-2,-1.2162162E-1,-1.4647378E-1,-4.43787E-2,-1.4895268E-1,-1.1489362E-1,1.2644629E-1,-6.4673916E-2,-7.211539E-3,1.487705E-1,-1.2857144E-1,1.3873059E-1,1.15966395E-1,-2.5227275E-2,-1.4169568E-1,-1.2700297E-1,-1.3305289E-1,-5.7421878E-2,-7.692309E-2,-1.4870018E-1,-1.1704434E-1,4.4558823E-2,1.4755815E-1,-1.3333334E-1,-2.9126214E-2,9.2792794E-2,1.329114E-1,2.9752066E-2,-9.619566E-2,-1.4953989E-1],"categories":[],"categories_nodes":[],"categories_segments":[],"categories_sizes":[],"default_left":[0,0,0,0,0,0,0,0,0,0,0,0,0,0,0,0,0,0,0,0,0,0,0,0,0,0,0,0,0,0,0,0,0,0,0,0,0,0,0,0,0,0,0,0,0,0,0,0,0,0,0,0,0,0,0,0,0,0,0,0,0,0,0,0,0,0,0,0,0,0,0,0,0,0,0,0,0,0,0,0,0,0,0,0,0,0,0,0,0,0,0,0,0],"id":0,"left_children":[1,3,5,7,9,11,13,15,17,19,21,23,25,27,29,31,-1,33,35,37,39,41,-1,43,-1,45,47,49,51,-1,-1,53,55,57,59,61,63,-1,65,67,69,-1,71,73,75,77,79,81,83,85,87,89,91,-1,-1,-1,-1,-1,-1,-1,-1,-1,-1,-1,-1,-1,-1,-1,-1,-1,-1,-1,-1,-1,-1,-1,-1,-1,-1,-1,-1,-1,-1,-1,-1,-1,-1,-1,-1,-1,-1,-1,-1],"loss_changes":[1.1169375E3,1.408125E2,8.436771E2,4.03125E0,1.5859111E3,1.0834924E2,1.4721362E2,1.96875E0,7.3789062E0,2.2075195E1,3.7191162E0,2.2318524E2,2.1859985E1,1.2195281E2,6.4755554E1,7.5820312E0,0E0,3.734375E0,2.4827927E1,5.46875E0,6.573453E1,7.368744E0,0E0,2.4281372E1,0E0,2.5463257E0,2.1519394E1,3.362828E1,6.3842346E1,0E0,0E0,5.087871E2,2.8125E-1,1.7587891E0,7.636719E-1,5.7055664E0,7.4844375E0,0E0,1.4824211E1,2.3322754E0,3.414041E1,0E0,1.5111036E1,5.258339E0,1.7099768E1,1.6253052E0,6.0731506E0,1.8598938E0,7.3838066E1,7.504326E0,2.6457909E1,5.595908E0,4.5515213E0,0E0,0E0,0E0,0E0,0E0,0E0,0E0,0E0,0E0,0E0,0E0,0E0,0E0,0E0,0E0,0E0,0E0,0E0,0E0,0E0,0E0,0E0,0E0,0E0,0E0,0E0,0E0,0E0,0E0,0E0,0E0,0E0,0E0,0E0,0E0,0E0,0E0,0E0,0E0,0E0],"parents":[2147483647,0,0,1,1,2,2,3,3,4,4,5,5,6,6,7,7,8,8,9,9,10,10,11,11,12,12,13,13,14,14,15,15,17,17,18,18,19,19,20,20,21,21,23,23,25,25,26,26,27,27,28,28,31,31,32,32,33,33,34,34,35,35,36,36,38,38,39,39,40,40,42,42,43,43,44,44,45,45,46,46,47,47,48,48,49,49,50,50,51,51,52,52],"right_children":[2,4,6,8,10,12,14,16,18,20,22,24,26,28,30,32,-1,34,36,38,40,42,-1,44,-1,46,48,50,52,-1,-1,54,56,58,60,62,64,-1,66,68,70,-1,72,74,76,78,80,82,84,86,88,90,92,-1,-1,-1,-1,-1,-1,-1,-1,-1,-1,-1,-1,-1,-1,-1,-1,-1,-1,-1,-1,-1,-1,-1,-1,-1,-1,-1,-1,-1,-1,-1,-1,-1,-1,-1,-1,-1,-1,-1,-1],"split_conditions":[6.2625E2,2.6161E2,2.2E1,2.2E1,1E0,4E0,5.3E1,4E0,2.3883E2,1E0,2.9497E2,5.3E1,3.1916E4,1E0,1E0,2.405E1,-1.499114E-1,2.769E3,1E0,1E0,4.1972E2,1E0,1.4988542E-1,1E0,-1.4979921E-1,1E0,1.2E1,2.661E3,2.8E1,1.4989981E-1,-1.4782609E-1,1E0,2.3883E2,5.3E1,6.5312E4,1E0,5.4E1,-1.4984688E-1,2.2E1,2.2E1,2.47E3,1.4951299E-1,5.3E1,1E0,4.3E3,5.4E1,1.2E1,3.6E1,5.3E1,1E0,1E0,1.899E3,2.47E3,-1.4893287E-1,1.356021E-1,-1.4992756E-1,-1.4166667E-1,-1.4585632E-1,-1.3843775E-1,-1.4921111E-1,-1.4659831E-1,-1.4971043E-1,1.2857144E-1,3.4722224E-2,-1.2162162E-1,-1.4647378E-1,-4.43787E-2,-1.4895268E-1,-1.1489362E-1,1.2644629E-1,-6.4673916E-2,-7.211539E-3,1.487705E-1,-1.2857144E-1,1.3873059E-1,1.15966395E-1,-2.5227275E-2,-1.4169568E-1,-1.2700297E-1,-1.3305289E-1,-5.7421878E-2,-7.692309E-2,-1.4870018E-1,-1.1704434E-1,4.4558823E-2,1.4755815E-1,-1.3333334E-1,-2.9126214E-2,9.2792794E-2,1.329114E-1,2.9752066E-2,-9.619566E-2,-1.4953989E-1],"split_indices":[0,0,24,24,7,24,3,24,0,12,0,3,4,22,19,0,0,4,8,8,0,22,0,17,0,17,24,2,3,0,0,6,0,3,4,7,3,0,24,24,2,0,3,22,4,3,24,3,3,19,11,4,2,0,0,0,0,0,0,0,0,0,0,0,0,0,0,0,0,0,0,0,0,0,0,0,0,0,0,0,0,0,0,0,0,0,0,0,0,0,0,0,0],"split_type":[0,0,0,0,0,0,0,0,0,0,0,0,0,0,0,0,0,0,0,0,0,0,0,0,0,0,0,0,0,0,0,0,0,0,0,0,0,0,0,0,0,0,0,0,0,0,0,0,0,0,0,0,0,0,0,0,0,0,0,0,0,0,0,0,0,0,0,0,0,0,0,0,0,0,0,0,0,0,0,0,0,0,0,0,0,0,0,0,0,0,0,0,0],"sum_hessian":[1.481915E6,1.470323E6,1.1592E4,1.441357E6,2.8966E4,8.153E3,3.439E3,1.295006E6,1.46351E5,2.7127E4,1.839E3,1.474E3,6.679E3,1.875E3,1.564E3,1.89544E5,1.105462E6,1.45685E5,6.66E2,2.521E4,1.917E3,5.31E2,1.308E3,7.28E2,7.46E2,4.712E3,1.967E3,1.077E3,7.98E2,1.496E3,6.8E1,4.5973E4,1.43571E5,2.4185E4,1.215E5,5.23E2,1.43E2,2.449E4,7.2E2,1.522E3,3.95E2,3.07E2,2.24E2,3.91E2,3.37E2,4.17E3,5.42E2,6.14E2,1.353E3,4.37E2,6.4E2,1.98E2,6E2,4.5401E4,5.72E2,1.4287E5,7.01E2,2.0307E4,3.878E3,1.06288E5,1.5212E4,5.17E2,6E0,1.07E2,3.6E1,5.52E2,1.68E2,1.288E3,2.34E2,1.2E2,2.75E2,1.03E2,1.21E2,6E0,3.85E2,1.18E2,2.19E2,3.16E3,1.01E3,4.15E2,1.27E2,3.8E1,5.76E2,1.014E3,3.39E2,4.29E2,8E0,3.08E2,3.32E2,7.8E1,1.2E2,2.75E2,3.25E2],"tree_param":{"num_deleted":"0","num_feature":"26","num_nodes":"93","size_leaf_vector":"0"}},{"base_weights":[-3.463323E-1,-3.4803817E-1,-1.2994991E-1,-3.490098E-1,-2.99679E-1,-2.526191E-1,1.6085663E-1,-3.494136E-1,-3.4543455E-1,-3.4234345E-1,3.2950595E-1,-8.0711104E-2,-2.9054E-1,2.8542016E-2,3.193623E-1,-3.4719673E-1,-1.04938015E-1,-3.4590486E-1,-2.8575277E-1,-3.4786168E-1,-2.696309E-1,2.7883658E-1,1.0495414E-1,1.9506297E-1,-1.0491959E-1,-3.2821625E-1,-2.4523781E-1,1.8221511E-1,-1.7882736E-1,1.049599E-1,-1.0412099E-1,-3.391694E-1,-3.497402E-1,-3.3324474E-1,-3.4702322E-1,-3.4583744E-1,-3.992021E-2,-1.0489465E-1,-2.8667247E-1,-3.3569524E-1,-1.4869278E-2,1.0480472E-1,1.8107359E-1,2.913611E-1,2.3328004E-2,-3.3857077E-1,-2.958909E-1,-2.2383015E-1,-4.3908352E-1,2.1149686E-1,-1.3938433E-1,1.6614403E-1,-2.9275495E-1,-1.0424637E-1,9.896407E-2,-1.049876E-1,-1.0229286E-1,-1.00883186E-1,-8.4694974E-2,-1.031377E-1,-1.0491177E-1,-1.05157636E-1,9.551021E-2,-8.91019E-2,2.4424985E-2,-1.0261112E-1,-3.114387E-2,-1.0631142E-1,-8.544321E-2,-5.7486385E-2,8.8733226E-2,-5.0688763E-3,1.04505174E-1,1.01194866E-1,6.545986E-2,7.4236214E-2,-3.9595716E-2,-3.2535437E-2,-1.0399953E-1,-1.11182235E-1,-9.640174E-3,-9.534629E-2,-5.083523E-2,-1.08946964E-1,-1.4561684E-1,6.9960944E-2,-1.2975158E-1,5.8587458E-2,-1.4126723E-1,-5.4225367E-2,-9.8783E-2],"categories":[],"categories_nodes":[],"categories_segments":[],"categories_sizes":[],"default_left":[0,0,0,0,0,0,0,0,0,0,0,0,0,0,0,0,0,0,0,0,0,0,0,0,0,0,0,0,0,0,0,0,0,0,0,0,0,0,0,0,0,0,0,0,0,0,0,0,0,0,0,0,0,0,0,0,0,0,0,0,0,0,0,0,0,0,0,0,0,0,0,0,0,0,0,0,0,0,0,0,0,0,0,0,0,0,0,0,0,0,0],"id":1,"left_children":[1,3,5,7,9,11,13,15,17,19,21,23,25,27,29,31,-1,33,35,37,39,41,-1,43,-1,45,47,49,51,-1,-1,53,55,57,59,61,63,-1,65,67,69,-1,71,73,75,77,79,81,83,85,-1,87,89,-1,-1,-1,-1,-1,-1,-1,-1,-1,-1,-1,-1,-1,-1,-1,-1,-1,-1,-1,-1,-1,-1,-1,-1,-1,-1,-1,-1,-1,-1,-1,-1,-1,-1,-1,-1,-1,-1],"loss_changes":[5.469531E2,6.8984375E1,4.1359778E2,1.953125E0,7.7769775E2,5.3131714E1,7.213668E1,9.6875E-1,4.0097656E0,1.079126E1,1.7988892E0,1.09496956E2,1.1321106E1,5.9815254E1,3.1936066E1,3.7519531E0,0E0,1.9433594E0,1.6972588E1,2.6569824E0,3.22762E1,3.6040916E0,0E0,1.2049225E1,0E0,1.1195068E0,1.2504623E1,2.0515915E1,3.1450743E1,0E0,0E0,2.5412305E2,1.5429688E-1,1.729248E0,1.0361328E0,2.9887466E0,7.1052227E0,0E0,7.263851E0,1.3464203E0,2.180002E1,0E0,7.4569407E0,1.496521E0,9.18765E0,5.0903015E0,1.7566742E1,1.3935394E1,8.820076E-1,1.4527073E1,0E0,3.7869854E0,2.3989143E0,0E0,0E0,0E0,0E0,0E0,0E0,0E0,0E0,0E0,0E0,0E0,0E0,0E0,0E0,0E0,0E0,0E0,0E0,0E0,0E0,0E0,0E0,0E0,0E0,0E0,0E0,0E0,0E0,0E0,0E0,0E0,0E0,0E0,0E0,0E0,0E0,0E0,0E0],"parents":[2147483647,0,0,1,1,2,2,3,3,4,4,5,5,6,6,7,7,8,8,9,9,10,10,11,11,12,12,13,13,14,14,15,15,17,17,18,18,19,19,20,20,21,21,23,23,25,25,26,26,27,27,28,28,31,31,32,32,33,33,34,34,35,35,36,36,38,38,39,39,40,40,42,42,43,43,44,44,45,45,46,46,47,47,48,48,49,49,51,51,52,52],"right_children":[2,4,6,8,10,12,14,16,18,20,22,24,26,28,30,32,-1,34,36,38,40,42,-1,44,-1,46,48,50,52,-1,-1,54,56,58,60,62,64,-1,66,68,70,-1,72,74,76,78,80,82,84,86,-1,88,90,-1,-1,-1,-1,-1,-1,-1,-1,-1,-1,-1,-1,-1,-1,-1,-1,-1,-1,-1,-1,-1,-1,-1,-1,-1,-1,-1,-1,-1,-1,-1,-1,-1,-1,-1,-1,-1,-1],"split_conditions":[6.2625E2,2.6161E2,2.2E1,2.2E1,1E0,4E0,5.3E1,4E0,2.2503E2,1E0,2.9497E2,5.3E1,1.6793E4,1E0,1E0,2.339E1,-1.04938015E-1,1.254E3,1E0,1E0,4.1972E2,1E0,1.0495414E-1,8.323E3,-1.0491959E-1,5.3E1,1E0,1E0,2.8E1,1.049599E-1,-1.0412099E-1,1E0,1E0,1E0,2.537E1,1E0,1E0,-1.0489465E-1,2.2E1,3.3932E2,2.2E1,1.0480472E-1,5.3E1,1E0,1E0,8E0,1.2E1,1.2E1,3.2389E4,1E0,-1.3938433E-1,1E0,3.507E3,-1.0424637E-1,9.896407E-2,-1.049876E-1,-1.0229286E-1,-1.00883186E-1,-8.4694974E-2,-1.031377E-1,-1.0491177E-1,-1.05157636E-1,9.551021E-2,-8.91019E-2,2.4424985E-2,-1.0261112E-1,-3.114387E-2,-1.0631142E-1,-8.544321E-2,-5.7486385E-2,8.8733226E-2,-5.0688763E-3,1.04505174E-1,1.01194866E-1,6.545986E-2,7.4236214E-2,-3.9595716E-2,-3.2535437E-2,-1.0399953E-1,-1.11182235E-1,-9.640174E-3,-9.534629E-2,-5.083523E-2,-1.08946964E-1,-1.4561684E-1,6.9960944E-2,-1.2975158E-1,5.8587458E-2,-1.4126723E-1,-5.4225367E-2,-9.8783E-2],"split_indices":[0,0,24,24,7,24,3,24,0,12,0,3,4,22,19,0,0,4,8,8,0,22,0,4,0,3,19,16,3,0,0,6,13,16,0,7,22,0,24,0,24,0,3,17,17,24,24,24,4,19,0,16,4,0,0,0,0,0,0,0,0,0,0,0,0,0,0,0,0,0,0,0,0,0,0,0,0,0,0,0,0,0,0,0,0,0,0,0,0,0,0],"split_type":[0,0,0,0,0,0,0,0,0,0,0,0,0,0,0,0,0,0,0,0,0,0,0,0,0,0,0,0,0,0,0,0,0,0,0,0,0,0,0,0,0,0,0,0,0,0,0,0,0,0,0,0,0,0,0,0,0,0,0,0,0,0,0,0,0,0,0,0,0,0,0,0,0,0,0,0,0,0,0,0,0,0,0,0,0,0,0,0,0,0,0],"sum_hessian":[1.481915E6,1.470323E6,1.1592E4,1.441357E6,2.8966E4,8.153E3,3.439E3,1.295006E6,1.46351E5,2.7127E4,1.839E3,1.474E3,6.679E3,1.875E3,1.564E3,1.89544E5,1.105462E6,1.45202E5,1.149E3,2.521E4,1.917E3,5.31E2,1.308E3,7.28E2,7.46E2,3.643E3,3.036E3,1.077E3,7.98E2,1.496E3,6.8E1,4.5639E4,1.43905E5,1.181E4,1.33392E5,9.23E2,2.26E2,2.449E4,7.2E2,1.522E3,3.95E2,3.07E2,2.24E2,4.66E2,2.62E2,2.752E3,8.91E2,2.736E3,3E2,1.031E3,4.6E1,1.98E2,6E2,4.5079E4,5.6E2,1.40367E5,3.538E3,1.1141E4,6.69E2,6.0571E4,7.2821E4,9.17E2,6E0,7.2E1,1.54E2,5.52E2,1.68E2,1.109E3,4.13E2,2.52E2,1.43E2,1.03E2,1.21E2,2.84E2,1.82E2,1.07E2,1.55E2,9.4E1,2.658E3,6.94E2,1.97E2,1.001E3,1.735E3,1.17E2,1.83E2,9.98E2,3.3E1,1.9E2,8E0,1.49E2,4.51E2],"tree_param":{"num_deleted":"0","num_feature":"26","num_nodes":"91","size_leaf_vector":"0"}},{"base_weights":[-2.4243388E-1,-2.4362732E-1,-9.105083E-2,-2.4430741E-1,-2.0977841E-1,-1.7690226E-1,1.12473466E-1,-2.4458976E-1,-2.4180737E-1,-2.3965512E-1,2.308222E-1,-5.6432437E-2,-2.0347653E-1,1.9747606E-2,2.2355413E-1,-2.4482343E-1,-2.428091E-1,-2.4221006E-1,-2.0437463E-1,-2.4351265E-1,-1.8882532E-1,3.1358528E-1,2.2149256E-1,1.368202E-1,-7.348585E-2,-2.277329E-1,-1.5075932E-1,1.273658E-1,-1.2547413E-1,7.349295E-2,-7.333739E-2,-2.4493681E-1,-2.4243401E-1,2.9362538E-1,-2.4505398E-1,-2.3648526E-1,-2.4361645E-1,-2.4359106E-1,-3.695315E-2,-7.342754E-2,-2.0085624E-1,-2.351126E-1,-1.0329588E-2,4.130293E-1,7.287952E-2,1.595323E-1,7.348685E-2,1.9331674E-1,-1.2550427E-2,-1.07788675E-1,-2.3961492E-1,-7.8453094E-2,1.0655995E-1,2.6914233E-1,3.395917E-2,1.580907E-1,-1.9561662E-1,-7.348908E-2,-7.174845E-2,-4.648605E-2,-7.3461965E-2,7.6063484E-2,1.4995529E-1,-2.5081544E-3,-7.352851E-2,-6.85862E-2,-7.315583E-2,-7.338155E-2,-7.170477E-2,-7.3818885E-2,7.095044E-2,7.502123E-2,-3.638552E-2,1.1376E-3,-6.980239E-2,-7.402106E-2,-5.1105566E-2,3.919773E-2,-8.33472E-2,7.097489E-2,1.5054771E-1,7.344333E-2,6.8289214E-3,7.310647E-2,3.8631853E-2,5.723866E-2,-3.9761342E-2,1.0316264E-1,-6.2131036E-2,-5.611554E-2,-7.994057E-2,1.6377868E-1,-1.0674896E-1,8.326697E-2,-6.2190216E-2,6.077607E-2,-1.8156396E-2,9.653291E-2,1.1540016E-2,-1.0660333E-2,-6.6918366E-2],"categories":[],"categories_nodes":[],"categories_segments":[],"categories_sizes":[],"default_left":[0,0,0,0,0,0,0,0,0,0,0,0,0,0,0,0,0,0,0,0,0,0,0,0,0,0,0,0,0,0,0,0,0,0,0,0,0,0,0,0,0,0,0,0,0,0,0,0,0,0,0,0,0,0,0,0,0,0,0,0,0,0,0,0,0,0,0,0,0,0,0,0,0,0,0,0,0,0,0,0,0,0,0,0,0,0,0,0,0,0,0,0,0,0,0,0,0,0,0,0,0],"id":2,"left_children":[1,3,5,7,9,11,13,15,17,19,21,23,25,27,29,31,33,35,37,39,41,43,45,47,-1,49,51,53,55,-1,-1,57,59,61,63,65,67,69,71,-1,73,75,77,79,-1,81,-1,83,85,87,89,-1,91,93,95,97,99,-1,-1,-1,-1,-1,-1,-1,-1,-1,-1,-1,-1,-1,-1,-1,-1,-1,-1,-1,-1,-1,-1,-1,-1,-1,-1,-1,-1,-1,-1,-1,-1,-1,-1,-1,-1,-1,-1,-1,-1,-1,-1,-1,-1],"loss_changes":[2.6771094E2,3.3796875E1,2.0258264E2,9.53125E-1,3.8136816E2,2.6092743E1,3.5427765E1,4.765625E-1,2.1582031E0,5.2731934E0,1.3512955E0,5.3770805E1,8.507568E0,2.9335049E1,1.5750458E1,2.5E-1,1.8112305E2,1.1083984E0,1.0259712E1,1.2906494E0,1.5844238E1,1.1924591E0,2.3698807E0,6.1544037E0,0E0,6.491501E0,6.0102432E1,1.426667E1,1.592299E1,0E0,0E0,1.09375E-1,1.1047363E1,5.055805E0,1.453125E0,1.600708E0,4.7021484E-1,1.5617905E0,7.243502E0,0E0,4.6957264E0,1.1044693E0,1.4970919E1,1.0563622E0,0E0,5.336315E0,0E0,1.6884899E0,4.9294763E0,1.8641981E1,5.8220367E0,0E0,1.292007E2,1.7733517E0,1.0384012E1,3.1009588E0,2.8082352E0,0E0,0E0,0E0,0E0,0E0,0E0,0E0,0E0,0E0,0E0,0E0,0E0,0E0,0E0,0E0,0E0,0E0,0E0,0E0,0E0,0E0,0E0,0E0,0E0,0E0,0E0,0E0,0E0,0E0,0E0,0E0,0E0,0E0,0E0,0E0,0E0,0E0,0E0,0E0,0E0,0E0,0E0,0E0,0E0],"parents":[2147483647,0,0,1,1,2,2,3,3,4,4,5,5,6,6,7,7,8,8,9,9,10,10,11,11,12,12,13,13,14,14,15,15,16,16,17,17,18,18,19,19,20,20,21,21,22,22,23,23,25,25,26,26,27,27,28,28,31,31,32,32,33,33,34,34,35,35,36,36,37,37,38,38,40,40,41,41,42,42,43,43,45,45,47,47,48,48,49,49,50,50,52,52,53,53,54,54,55,55,56,56],"right_children":[2,4,6,8,10,12,14,16,18,20,22,24,26,28,30,32,34,36,38,40,42,44,46,48,-1,50,52,54,56,-1,-1,58,60,62,64,66,68,70,72,-1,74,76,78,80,-1,82,-1,84,86,88,90,-1,92,94,96,98,100,-1,-1,-1,-1,-1,-1,-1,-1,-1,-1,-1,-1,-1,-1,-1,-1,-1,-1,-1,-1,-1,-1,-1,-1,-1,-1,-1,-1,-1,-1,-1,-1,-1,-1,-1,-1,-1,-1,-1,-1,-1,-1,-1,-1],"split_conditions":[6.2625E2,2.6161E2,2.2E1,2.2E1,1E0,4E0,5.3E1,1E0,2.1497E2,1E0,2.8E1,5.3E1,5.3E1,1E0,1E0,1E0,2.143E1,3.412E3,1E0,1E0,4.1972E2,2.9497E2,2.9497E2,1.1858E4,-7.348585E-2,1.2E1,1.2E1,2.47E3,2.7E1,7.349295E-2,-7.333739E-2,2.3883E2,1.591E1,4E0,2.208E1,2.537E1,5.0023E4,1E0,2.067E3,-7.342754E-2,2.153E3,2.2E1,1E0,1E0,7.287952E-2,1E0,7.348685E-2,3.899E3,1E0,1E0,1E0,-7.8453094E-2,1E0,1E0,2.414E3,2.807E3,1.7929E4,-7.348908E-2,-7.174845E-2,-4.648605E-2,-7.3461965E-2,7.6063484E-2,1.4995529E-1,-2.5081544E-3,-7.352851E-2,-6.85862E-2,-7.315583E-2,-7.338155E-2,-7.170477E-2,-7.3818885E-2,7.095044E-2,7.502123E-2,-3.638552E-2,1.1376E-3,-6.980239E-2,-7.402106E-2,-5.1105566E-2,3.919773E-2,-8.33472E-2,7.097489E-2,1.5054771E-1,7.344333E-2,6.8289214E-3,7.310647E-2,3.8631853E-2,5.723866E-2,-3.9761342E-2,1.0316264E-1,-6.2131036E-2,-5.611554E-2,-7.994057E-2,1.6377868E-1,-1.0674896E-1,8.326697E-2,-6.2190216E-2,6.077607E-2,-1.8156396E-2,9.653291E-2,1.1540016E-2,-1.0660333E-2,-6.6918366E-2],"split_indices":[0,0,24,24,7,24,3,6,0,12,3,3,3,22,19,18,0,4,8,8,0,0,0,4,0,24,24,2,3,0,0,0,0,24,0,0,4,7,4,0,4,24,20,22,0,22,0,4,17,17,22,0,19,19,4,2,1,0,0,0,0,0,0,0,0,0,0,0,0,0,0,0,0,0,0,0,0,0,0,0,0,0,0,0,0,0,0,0,0,0,0,0,0,0,0,0,0,0,0,0,0],"split_type":[0,0,0,0,0,0,0,0,0,0,0,0,0,0,0,0,0,0,0,0,0,0,0,0,0,0,0,0,0,0,0,0,0,0,0,0,0,0,0,0,0,0,0,0,0,0,0,0,0,0,0,0,0,0,0,0,0,0,0,0,0,0,0,0,0,0,0,0,0,0,0,0,0,0,0,0,0,0,0,0,0,0,0,0,0,0,0,0,0,0,0,0,0,0,0,0,0,0,0,0,0],"sum_hessian":[1.481915E6,1.470323E6,1.1592E4,1.441357E6,2.8966E4,8.153E3,3.439E3,1.295006E6,1.46351E5,2.7127E4,1.839E3,1.474E3,6.679E3,1.875E3,1.564E3,1.144662E6,1.50344E5,1.44788E5,1.563E3,2.521E4,1.917E3,1.83E2,1.656E3,7.28E2,7.46E2,4.572E3,2.107E3,1.077E3,7.98E2,1.496E3,6.8E1,1.092711E6,5.1951E4,6.26E2,1.49718E5,2.8588E4,1.162E5,1.266E3,2.97E2,2.449E4,7.2E2,1.522E3,3.95E2,7.4E1,1.09E2,4.57E2,1.199E3,5.28E2,2E2,4.13E2,4.159E3,1.473E3,6.34E2,4.27E2,6.5E2,1.58E2,6.4E2,1.087627E6,5.084E3,1.411E3,5.054E4,5.26E2,1E2,2.6E1,1.49692E5,1.3843E4,1.4745E4,9.5602E4,2.0598E4,1.26E3,6E0,6.7E1,2.3E2,9.7E1,6.23E2,1.288E3,2.34E2,2.59E2,1.36E2,2.6E1,4.8E1,2.81E2,1.76E2,2.95E2,2.33E2,7.4E1,1.26E2,7.4E1,3.39E2,1.409E3,2.75E3,3.25E2,3.09E2,4.2E2,7E0,2.33E2,4.17E2,6.6E1,9.2E1,9.4E1,5.46E2],"tree_param":{"num_deleted":"0","num_feature":"26","num_nodes":"101","size_leaf_vector":"0"}},{"base_weights":[-1.6970384E-1,-1.7053927E-1,-6.3732676E-2,-1.7101544E-1,-1.4684017E-1,-1.2383903E-1,7.8758866E-2,-1.7020574E-1,-1.7148222E-1,-1.6777006E-1,1.618191E-1,-3.9464924E-2,-1.42451E-1,1.1283795E-2,1.5526825E-1,-1.7066835E-1,1.4920874E-1,-1.7153527E-1,-1.6307381E-1,-1.7046449E-1,-1.3226599E-1,1.7036422E-1,9.574742E-2,9.5951386E-2,-5.146961E-2,-1.604195E-1,-1.0230056E-1,8.893403E-2,-9.5147856E-2,1.7012057E-1,-5.230124E-2,-1.7147602E-1,-1.6477767E-1,2.3076332E-1,-7.690613E-2,-1.716735E-1,-1.6975561E-1,-1.6944695E-1,-9.724819E-2,-5.140018E-2,-1.406946E-1,-1.5267336E-1,7.445966E-2,2.1859612E-1,1.6495843E-1,-4.365051E-4,5.1088084E-2,1.6108522E-1,2.012768E-2,-1.7511207E-1,-9.3634866E-2,-1.35291E-1,-1.8835286E-2,1.07467875E-1,-9.634407E-2,8.915826E-2,-1.5887916E-1,1.704341E-1,-4.6999957E-2,-5.150749E-2,-3.4824777E-2,-5.0976884E-2,-4.0391393E-2,5.5451225E-2,1.525889E-1,-7.678619E-2,5.7762126E-3,-5.151561E-2,-5.0829522E-2,-5.1605154E-2,-4.8035584E-2,-5.220058E-2,-4.186341E-2,-5.3531032E-2,-1.3287857E-2,5.566349E-2,-4.639039E-2,-9.237773E-3,-5.1849198E-2,5.468479E-2,-5.3982463E-2,8.776531E-2,5.1167432E-2,4.3306686E-2,5.400594E-2,5.0529566E-2,-4.027455E-2,-1.3151138E-1,5.1461663E-2,2.2687292E-2,-7.307619E-2,-6.1581388E-2,-4.735293E-2,-4.82375E-2,2.6323857E-2,-5.0751876E-2,-3.2183502E-2,-2.2863775E-2,5.052033E-2,3.6175773E-2,-8.572554E-2,-1.0550014E-2,5.8271755E-2,-6.7331694E-2,-3.0096505E-2,5.253147E-2,4.6189807E-2],"categories":[],"categories_nodes":[],"categories_segments":[],"categories_sizes":[],"default_left":[0,0,0,0,0,0,0,0,0,0,0,0,0,0,0,0,0,0,0,0,0,0,0,0,0,0,0,0,0,0,0,0,0,0,0,0,0,0,0,0,0,0,0,0,0,0,0,0,0,0,0,0,0,0,0,0,0,0,0,0,0,0,0,0,0,0,0,0,0,0,0,0,0,0,0,0,0,0,0,0,0,0,0,0,0,0,0,0,0,0,0,0,0,0,0,0,0,0,0,0,0,0,0,0,0,0,0],"id":3,"left_children":[1,3,5,7,9,11,13,15,17,19,21,23,25,27,29,31,33,35,37,39,41,43,45,47,-1,49,51,53,55,57,-1,59,61,63,65,67,69,71,73,-1,75,77,79,81,83,85,-1,87,89,91,93,95,97,99,-1,101,103,105,-1,-1,-1,-1,-1,-1,-1,-1,-1,-1,-1,-1,-1,-1,-1,-1,-1,-1,-1,-1,-1,-1,-1,-1,-1,-1,-1,-1,-1,-1,-1,-1,-1,-1,-1,-1,-1,-1,-1,-1,-1,-1,-1,-1,-1,-1,-1,-1,-1],"loss_changes":[1.311836E2,1.6566406E1,9.929968E1,5.15625E-1,1.8715991E2,1.2799164E1,1.7757164E1,7.792871E1,3.828125E-1,2.5725708E0,1.0225296E0,2.640208E1,4.802841E0,1.5124128E1,7.9210587E0,2.4765625E0,1.4088003E1,1.9335938E-1,2.396164E0,6.2841797E-1,8.102886E0,3.8841248E-1,1.527315E0,3.5970612E0,0E0,4.510063E0,5.691805E0,8.075713E0,9.08213E0,1.8479156E-1,0E0,5.5097656E0,9.825195E0,7.065056E0,3.500034E0,5.46875E-2,1.4013672E0,6.8969727E-1,2.1847744E0,0E0,3.3076458E0,4.2842293E0,4.778241E0,5.2207947E-1,4.2954254E-1,2.146694E0,0E0,2.5316706E0,4.9651494E0,1.9362869E0,1.0173038E1,1.3884525E0,6.3190446E0,5.25978E0,0E0,2.606603E0,2.1810799E0,9.16481E-2,0E0,0E0,0E0,0E0,0E0,0E0,0E0,0E0,0E0,0E0,0E0,0E0,0E0,0E0,0E0,0E0,0E0,0E0,0E0,0E0,0E0,0E0,0E0,0E0,0E0,0E0,0E0,0E0,0E0,0E0,0E0,0E0,0E0,0E0,0E0,0E0,0E0,0E0,0E0,0E0,0E0,0E0,0E0,0E0,0E0,0E0,0E0,0E0,0E0],"parents":[2147483647,0,0,1,1,2,2,3,3,4,4,5,5,6,6,7,7,8,8,9,9,10,10,11,11,12,12,13,13,14,14,15,15,16,16,17,17,18,18,19,19,20,20,21,21,22,22,23,23,25,25,26,26,27,27,28,28,29,29,31,31,32,32,33,33,34,34,35,35,36,36,37,37,38,38,40,40,41,41,42,42,43,43,44,44,45,45,47,47,48,48,49,49,50,50,51,51,52,52,53,53,55,55,56,56,57,57],"right_children":[2,4,6,8,10,12,14,16,18,20,22,24,26,28,30,32,34,36,38,40,42,44,46,48,-1,50,52,54,56,58,-1,60,62,64,66,68,70,72,74,-1,76,78,80,82,84,86,-1,88,90,92,94,96,98,100,-1,102,104,106,-1,-1,-1,-1,-1,-1,-1,-1,-1,-1,-1,-1,-1,-1,-1,-1,-1,-1,-1,-1,-1,-1,-1,-1,-1,-1,-1,-1,-1,-1,-1,-1,-1,-1,-1,-1,-1,-1,-1,-1,-1,-1,-1,-1,-1,-1,-1,-1,-1],"split_conditions":[6.2625E2,2.6161E2,2.2E1,2.47E1,1E0,4E0,5.2E1,1E0,2.3883E2,1E0,1E0,5.3E1,1E0,1E0,1E0,1.77E1,1.955E1,1E0,1E0,1E0,5.0058E2,2.8E1,2.9497E2,1E0,-5.146961E-2,1E0,3.4831E4,1E0,2.8E1,1E0,-5.230124E-2,1E0,2.2E1,4E0,5.4E1,2.0719E2,1.0042E2,1E0,1E0,-5.140018E-2,5.71E2,2.067E3,1E0,2.9497E2,5.3E1,1E0,5.1088084E-2,1E0,9.2059E2,1E0,1.2E1,9.2059E2,1.8E1,1E0,-9.634407E-2,1E0,1E0,7.3564E4,-4.6999957E-2,-5.150749E-2,-3.4824777E-2,-5.0976884E-2,-4.0391393E-2,5.5451225E-2,1.525889E-1,-7.678619E-2,5.7762126E-3,-5.151561E-2,-5.0829522E-2,-5.1605154E-2,-4.8035584E-2,-5.220058E-2,-4.186341E-2,-5.3531032E-2,-1.3287857E-2,5.566349E-2,-4.639039E-2,-9.237773E-3,-5.1849198E-2,5.468479E-2,-5.3982463E-2,8.776531E-2,5.1167432E-2,4.3306686E-2,5.400594E-2,5.0529566E-2,-4.027455E-2,-1.3151138E-1,5.1461663E-2,2.2687292E-2,-7.307619E-2,-6.1581388E-2,-4.735293E-2,-4.82375E-2,2.6323857E-2,-5.0751876E-2,-3.2183502E-2,-2.2863775E-2,5.052033E-2,3.6175773E-2,-8.572554E-2,-1.0550014E-2,5.8271755E-2,-6.7331694E-2,-3.0096505E-2,5.253147E-2,4.6189807E-2],"split_indices":[0,0,24,0,7,24,3,6,0,12,20,3,11,22,19,0,0,13,8,8,0,3,0,17,0,17,4,16,3,16,0,18,24,24,3,0,0,7,22,0,4,4,20,0,3,22,0,22,0,9,24,0,24,19,0,11,9,1,0,0,0,0,0,0,0,0,0,0,0,0,0,0,0,0,0,0,0,0,0,0,0,0,0,0,0,0,0,0,0,0,0,0,0,0,0,0,0,0,0,0,0,0,0,0,0,0,0],"split_type":[0,0,0,0,0,0,0,0,0,0,0,0,0,0,0,0,0,0,0,0,0,0,0,0,0,0,0,0,0,0,0,0,0,0,0,0,0,0,0,0,0,0,0,0,0,0,0,0,0,0,0,0,0,0,0,0,0,0,0,0,0,0,0,0,0,0,0,0,0,0,0,0,0,0,0,0,0,0,0,0,0,0,0,0,0,0,0,0,0,0,0,0,0,0,0,0,0,0,0,0,0,0,0,0,0,0,0],"sum_hessian":[1.481915E6,1.470323E6,1.1592E4,1.441357E6,2.8966E4,8.153E3,3.439E3,5.27213E5,9.14144E5,2.7127E4,1.839E3,1.474E3,6.679E3,1.828E3,1.611E3,5.26451E5,7.62E2,9.08394E5,5.75E3,2.521E4,1.917E3,1.627E3,2.12E2,7.28E2,7.46E2,4.612E3,2.067E3,1.057E3,7.71E2,1.542E3,6.9E1,4.62948E5,6.3503E4,5.6E2,2.02E2,8.42827E5,6.5567E4,5.241E3,5.09E2,2.449E4,7.2E2,1.745E3,1.72E2,1.6E2,1.467E3,9.3E1,1.19E2,3.91E2,3.37E2,3.779E3,8.33E2,1.481E3,5.86E2,1.012E3,4.5E1,1.98E2,5.73E2,1.541E3,1E0,4.61151E5,1.797E3,5.4239E4,9.264E3,4.82E2,7.8E1,7E1,1.32E2,8.26103E5,1.6724E4,5.3091E4,1.2476E4,4.544E3,6.97E2,2E2,3.09E2,2.9E1,6.91E2,2.48E2,1.497E3,1.21E2,5.1E1,6.1E1,9.9E1,6.24E2,8.43E2,4.1E1,5.2E1,6E0,3.85E2,2.79E2,5.8E1,1.372E3,2.407E3,6.08E2,2.25E2,6.68E2,8.13E2,4.49E2,1.37E2,9.8E2,3.2E1,9.1E1,1.07E2,2.69E2,3.04E2,1.193E3,3.48E2],"tree_param":{"num_deleted":"0","num_feature":"26","num_nodes":"107","size_leaf_vector":"0"}},{"base_weights":[-1.1879321E-1,-1.1937763E-1,-4.4661544E-2,-1.19711086E-1,-1.0278138E-1,-8.6732455E-2,5.5074167E-2,-1.20745555E-1,-1.1949508E-1,-1.1744282E-1,1.13435104E-1,-2.774877E-2,-9.974356E-2,1.143543E-1,9.5582E-3,-1.20758094E-1,4.47874E-2,-1.1756331E-1,-1.20051324E-1,-1.2036581E-1,-9.5817E-2,1.1940006E-1,6.731118E-2,6.698705E-2,-3.6049396E-2,-1.17088154E-1,-6.206967E-2,1.19553536E-1,-2.0908068E-1,-3.927E-2,1.2613483E-1,-1.2033008E-1,-1.2401493E-1,-1.18188374E-1,1.24598466E-1,-1.2010408E-1,-1.1585402E-1,-1.1173617E-1,-1.21278025E-1,-1.10023275E-1,1.1847973E-2,1.5388021E-1,1.1553719E-1,-4.472235E-4,1.4534053E-1,3.002518E-1,5.0104585E-2,-2.6855748E-2,-1.2603986E-1,-1.3635568E-1,1.1046521E-1,1.2312462E-1,-7.826658E-2,-1.2033942E-1,-1.6254339E-1,-1.1586028E-1,9.986578E-2,1.6281204E-1,-8.7214015E-2,-3.609118E-2,-4.5642927E-2,-3.739095E-2,-3.3669777E-2,-3.5785068E-2,-3.328586E-2,5.3026456E-2,1.0915665E-3,-3.6059707E-2,-3.566787E-2,-3.589794E-2,-2.1260131E-2,-3.569683E-2,2.1521794E-3,-3.6200438E-2,-3.8979426E-2,-3.5335124E-2,4.245669E-3,-5.21005E-2,3.9593626E-2,6.1860383E-2,3.5970703E-2,3.6604743E-2,2.7630242E-2,3.579011E-2,-3.8622063E-2,5.8455184E-2,3.5635717E-2,-2.2116326E-2,9.532023E-2,3.3701897E-2,-1.0106786E-2,-1.9322477E-2,1.7581688E-1,-2.7183047E-2,-4.324597E-2,-3.932764E-2,-4.421699E-2,1.1819502E-1,-5.6412753E-2,4.389416E-2,3.0525569E-2,-5.7792064E-2,-3.305186E-2,-5.269693E-3,-5.150234E-2,3.607617E-2,-3.5849903E-2,6.714466E-2,3.232559E-2,-5.0381538E-2,2.2337599E-2],"categories":[],"categories_nodes":[],"categories_segments":[],"categories_sizes":[],"default_left":[0,0,0,0,0,0,0,0,0,0,0,0,0,0,0,0,0,0,0,0,0,0,0,0,0,0,0,0,0,0,0,0,0,0,0,0,0,0,0,0,0,0,0,0,0,0,0,0,0,0,0,0,0,0,0,0,0,0,0,0,0,0,0,0,0,0,0,0,0,0,0,0,0,0,0,0,0,0,0,0,0,0,0,0,0,0,0,0,0,0,0,0,0,0,0,0,0,0,0,0,0,0,0,0,0,0,0,0,0,0,0],"id":4,"left_children":[1,3,5,7,9,11,13,15,17,19,21,23,25,27,29,31,-1,33,35,37,39,41,43,45,-1,47,49,51,53,55,57,59,61,63,65,67,69,71,73,75,77,79,81,83,85,87,89,91,93,95,97,99,-1,-1,101,103,105,107,109,-1,-1,-1,-1,-1,-1,-1,-1,-1,-1,-1,-1,-1,-1,-1,-1,-1,-1,-1,-1,-1,-1,-1,-1,-1,-1,-1,-1,-1,-1,-1,-1,-1,-1,-1,-1,-1,-1,-1,-1,-1,-1,-1,-1,-1,-1,-1,-1,-1,-1,-1,-1],"loss_changes":[6.419531E1,8.125E0,4.8648678E1,3.0859375E-1,9.184E1,6.2549667E0,9.280687E0,8.6035156E-1,1.2675781E0,1.7032776E0,4.9819756E-1,1.2921814E1,4.3576965E0,2.5373325E0,1.1087718E1,3.3203125E-1,0E0,4.037744E1,1.9042969E-1,1.7453003E-1,4.949299E0,1.9905853E-1,1.1262267E0,2.8558195E0,0E0,3.6903877E0,2.703315E1,2.0306091E0,1.4929938E-1,1.4642876E1,4.5135994E0,1.6479492E-1,1.9747925E-1,2.0944824E0,4.3335247E0,9.082031E-2,1.9638672E0,1.9819832E0,9.829712E-2,2.755806E0,8.447111E0,2.6149487E-1,2.1165657E-1,1.7820779E0,1.0701275E-1,3.4378004E-1,3.5551429E0,9.566531E0,2.6566238E0,6.62899E-2,5.3815636E1,7.077217E-1,0E0,0E0,1.18762255E-2,4.857788E0,2.1969242E0,1.625082E0,1.121834E0,0E0,0E0,0E0,0E0,0E0,0E0,0E0,0E0,0E0,0E0,0E0,0E0,0E0,0E0,0E0,0E0,0E0,0E0,0E0,0E0,0E0,0E0,0E0,0E0,0E0,0E0,0E0,0E0,0E0,0E0,0E0,0E0,0E0,0E0,0E0,0E0,0E0,0E0,0E0,0E0,0E0,0E0,0E0,0E0,0E0,0E0,0E0,0E0,0E0,0E0,0E0,0E0],"parents":[2147483647,0,0,1,1,2,2,3,3,4,4,5,5,6,6,7,7,8,8,9,9,10,10,11,11,12,12,13,13,14,14,15,15,17,17,18,18,19,19,20,20,21,21,22,22,23,23,25,25,26,26,27,27,28,28,29,29,30,30,31,31,32,32,33,33,34,34,35,35,36,36,37,37,38,38,39,39,40,40,41,41,42,42,43,43,44,44,45,45,46,46,47,47,48,48,49,49,50,50,51,51,54,54,55,55,56,56,57,57,58,58],"right_children":[2,4,6,8,10,12,14,16,18,20,22,24,26,28,30,32,-1,34,36,38,40,42,44,46,-1,48,50,52,54,56,58,60,62,64,66,68,70,72,74,76,78,80,82,84,86,88,90,92,94,96,98,100,-1,-1,102,104,106,108,110,-1,-1,-1,-1,-1,-1,-1,-1,-1,-1,-1,-1,-1,-1,-1,-1,-1,-1,-1,-1,-1,-1,-1,-1,-1,-1,-1,-1,-1,-1,-1,-1,-1,-1,-1,-1,-1,-1,-1,-1,-1,-1,-1,-1,-1,-1,-1,-1,-1,-1,-1,-1],"split_conditions":[6.2625E2,2.6161E2,2.2E1,6.55E0,1E0,4E0,2.59E3,1E0,2.339E1,2.2E1,1E0,5.3E1,5.3E1,1E0,4.6858E4,2.2E1,4.47874E-2,1E0,2.2503E2,3E0,1E0,2.8E1,5.3E1,2.8E1,-3.6049396E-2,1.2E1,1.2E1,1E0,2.8E1,5.3E1,8.546E4,1E0,1E0,2.2E1,1.709E1,1E0,1E0,1E0,1E0,1E0,3.3932E2,2.9497E2,1.5898E4,1E0,2.9497E2,3.95E2,1E0,1E0,1E0,1E0,1E0,2.47E3,-7.826658E-2,-1.2033942E-1,5.1E1,2.523E3,1E0,5.3E1,5.3E1,-3.609118E-2,-4.5642927E-2,-3.739095E-2,-3.3669777E-2,-3.5785068E-2,-3.328586E-2,5.3026456E-2,1.0915665E-3,-3.6059707E-2,-3.566787E-2,-3.589794E-2,-2.1260131E-2,-3.569683E-2,2.1521794E-3,-3.6200438E-2,-3.8979426E-2,-3.5335124E-2,4.245669E-3,-5.21005E-2,3.9593626E-2,6.1860383E-2,3.5970703E-2,3.6604743E-2,2.7630242E-2,3.579011E-2,-3.8622063E-2,5.8455184E-2,3.5635717E-2,-2.2116326E-2,9.532023E-2,3.3701897E-2,-1.0106786E-2,-1.9322477E-2,1.7581688E-1,-2.7183047E-2,-4.324597E-2,-3.932764E-2,-4.421699E-2,1.1819502E-1,-5.6412753E-2,4.389416E-2,3.0525569E-2,-5.7792064E-2,-3.305186E-2,-5.269693E-3,-5.150234E-2,3.607617E-2,-3.5849903E-2,6.714466E-2,3.232559E-2,-5.0381538E-2,2.2337599E-2],"split_indices":[0,0,24,0,7,24,4,6,0,24,20,3,3,19,4,24,0,6,0,24,12,3,3,3,0,24,24,16,3,3,4,18,10,24,0,13,8,12,12,8,0,0,4,22,0,2,17,9,22,11,19,2,0,0,3,2,19,3,3,0,0,0,0,0,0,0,0,0,0,0,0,0,0,0,0,0,0,0,0,0,0,0,0,0,0,0,0,0,0,0,0,0,0,0,0,0,0,0,0,0,0,0,0,0,0,0,0,0,0,0,0],"split_type":[0,0,0,0,0,0,0,0,0,0,0,0,0,0,0,0,0,0,0,0,0,0,0,0,0,0,0,0,0,0,0,0,0,0,0,0,0,0,0,0,0,0,0,0,0,0,0,0,0,0,0,0,0,0,0,0,0,0,0,0,0,0,0,0,0,0,0,0,0,0,0,0,0,0,0,0,0,0,0,0,0,0,0,0,0,0,0,0,0,0,0,0,0,0,0,0,0,0,0,0,0,0,0,0,0,0,0,0,0,0,0],"sum_hessian":[1.481915E6,1.470323E6,1.1592E4,1.441357E6,2.8966E4,8.153E3,3.439E3,2.48882E5,1.192475E6,2.7127E4,1.839E3,1.474E3,6.679E3,1.493E3,1.946E3,2.48871E5,1.1E1,2.66651E5,9.25824E5,2.3893E4,3.234E3,1.627E3,2.12E2,7.28E2,7.46E2,4.572E3,2.107E3,1.47E3,2.3E1,1.372E3,5.74E2,2.19997E5,2.8874E4,2.65965E5,6.86E2,9.14305E5,1.1519E4,2.296E3,2.1597E4,2.857E3,3.77E2,1.6E2,1.467E3,1.14E2,9.8E1,4.8E1,6.8E2,4.13E2,4.159E3,1.473E3,6.34E2,1.457E3,1.3E1,3E0,2E1,8.85E2,4.87E2,4.9E2,8.4E1,2.19821E5,1.76E2,2.7418E4,1.456E3,2.30987E5,3.4978E4,4.79E2,2.07E2,8.47758E5,6.6547E4,1.0619E4,9E2,2.164E3,1.32E2,2.0189E4,1.408E3,2.689E3,1.68E2,1.48E2,2.29E2,6.1E1,9.9E1,1.146E3,3.21E2,5.9E1,5.5E1,3.2E1,6.6E1,2E0,4.6E1,3.9E2,2.9E2,3.9E2,2.3E1,1.409E3,2.75E3,1.006E3,4.67E2,3.25E2,3.09E2,6.96E2,7.61E2,1.1E1,9E0,3.21E2,5.64E2,4.46E2,4.1E1,2.31E2,2.59E2,5.6E1,2.8E1],"tree_param":{"num_deleted":"0","num_feature":"26","num_nodes":"111","size_leaf_vector":"0"}},{"base_weights":[-8.315539E-2,-8.3564445E-2,-3.1269558E-2,-8.379793E-2,-7.194348E-2,-6.069738E-2,3.8493734E-2,-8.451102E-2,-8.363621E-2,-8.221559E-2,7.9542235E-2,-1.9382952E-2,-6.981087E-2,4.5160104E-2,-1.8693565E-1,-8.452927E-2,1.05758354E-1,-8.215022E-2,-8.403607E-2,-8.426062E-2,-6.708538E-2,1.20934546E-1,7.439227E-2,5.0150275E-2,-8.259443E-2,-4.378909E-2,-8.434491E-2,5.28705E-2,-1.342383E-1,-7.819515E-2,-5.1518377E-2,-8.422262E-2,-8.685642E-2,2.428651E-2,8.067966E-2,-8.2607865E-2,8.695788E-2,-8.4063806E-2,-7.958348E-2,-8.277143E-2,-8.760137E-2,2.4474002E-3,-8.433538E-2,6.987807E-2,1.5524082E-1,4.9293645E-2,9.291079E-2,1.1029974E-1,8.387777E-3,-3.6124144E-2,-2.5249057E-2,2.8929454E-1,-5.101137E-2,-9.952996E-2,-3.3100322E-2,7.911906E-2,-7.9603E-3,-3.0754432E-1,-1.2403087E-1,-2.52615E-2,-3.1325158E-2,-2.7572298E-2,-2.570414E-2,-2.4868878E-2,-1.852679E-2,3.5602823E-2,-6.212156E-3,-2.5238384E-2,-2.4972962E-2,-2.5023006E-2,-1.5087551E-2,-1.5924312E-2,-2.535305E-2,-2.5497952E-2,-3.6508687E-2,-9.888343E-3,9.0858996E-2,-2.6780406E-2,-1.6774205E-2,1.07628275E-2,2.5427502E-2,7.352642E-2,2.7581597E-2,-1.3077383E-2,2.824572E-2,3.6615305E-2,2.4997832E-2,5.5194847E-2,2.8438963E-2,-8.676849E-3,4.2587332E-2,-1.0477404E-1,2.7279342E-2,3.7079602E-2,1.4569122E-1,5.232117E-3,-2.3294576E-2,-2.787016E-2,-5.384321E-2,-2.8715888E-2,2.9694162E-2,3.0119652E-2,1.4327206E-2,1.8264871E-2,-2.2364557E-2,-4.2548187E-2,-1.18912585E-1,-4.351545E-2,-3.0820785E-2],"categories":[],"categories_nodes":[],"categories_segments":[],"categories_sizes":[],"default_left":[0,0,0,0,0,0,0,0,0,0,0,0,0,0,0,0,0,0,0,0,0,0,0,0,0,0,0,0,0,0,0,0,0,0,0,0,0,0,0,0,0,0,0,0,0,0,0,0,0,0,0,0,0,0,0,0,0,0,0,0,0,0,0,0,0,0,0,0,0,0,0,0,0,0,0,0,0,0,0,0,0,0,0,0,0,0,0,0,0,0,0,0,0,0,0,0,0,0,0,0,0,0,0,0,0,0,0,0,0],"id":5,"left_children":[1,3,5,7,9,11,13,15,17,19,21,23,25,27,29,31,33,35,37,39,41,43,45,47,49,51,53,55,57,-1,-1,59,61,-1,-1,63,65,67,69,71,73,75,77,79,81,83,85,87,89,91,-1,93,95,97,99,101,103,105,107,-1,-1,-1,-1,-1,-1,-1,-1,-1,-1,-1,-1,-1,-1,-1,-1,-1,-1,-1,-1,-1,-1,-1,-1,-1,-1,-1,-1,-1,-1,-1,-1,-1,-1,-1,-1,-1,-1,-1,-1,-1,-1,-1,-1,-1,-1,-1,-1,-1,-1],"loss_changes":[3.1449219E1,3.984375E0,2.3802551E1,1.5917969E-1,4.5081436E1,3.0687828E0,5.178062E0,9.343262E-1,6.9140625E-1,8.3374023E-1,3.8323402E-1,6.4872074E0,2.5226936E0,4.62986E0,6.6221714E-2,1.8286133E-1,8.34572E-2,1.9291504E1,1.07910156E-1,1.116333E-1,3.8803968E0,3.429668E-1,7.5721073E-1,1.7650052E0,5.3323746E-2,5.7786326E0,3.3310852E0,5.1181192E0,2.0597816E-1,0E0,0E0,7.507324E-2,1.7614746E-1,0E0,0E0,1.489502E0,2.300713E0,4.1992188E-2,6.404152E-1,8.4963226E-1,6.432533E-1,6.860396E0,3.58387E-1,3.895375E-2,6.599698E-1,2.912462E0,2.529316E-1,3.1154847E-1,2.077274E0,1.1059223E0,0E0,1.5991693E0,4.2789655E0,1.7349968E0,8.12314E0,1.4894466E0,4.437408E0,4.6828806E-2,4.418564E-2,0E0,0E0,0E0,0E0,0E0,0E0,0E0,0E0,0E0,0E0,0E0,0E0,0E0,0E0,0E0,0E0,0E0,0E0,0E0,0E0,0E0,0E0,0E0,0E0,0E0,0E0,0E0,0E0,0E0,0E0,0E0,0E0,0E0,0E0,0E0,0E0,0E0,0E0,0E0,0E0,0E0,0E0,0E0,0E0,0E0,0E0,0E0,0E0,0E0,0E0],"parents":[2147483647,0,0,1,1,2,2,3,3,4,4,5,5,6,6,7,7,8,8,9,9,10,10,11,11,12,12,13,13,14,14,15,15,16,16,17,17,18,18,19,19,20,20,21,21,22,22,23,23,24,24,25,25,26,26,27,27,28,28,31,31,32,32,35,35,36,36,37,37,38,38,39,39,40,40,41,41,42,42,43,43,44,44,45,45,46,46,47,47,48,48,49,49,51,51,52,52,53,53,54,54,55,55,56,56,57,57,58,58],"right_children":[2,4,6,8,10,12,14,16,18,20,22,24,26,28,30,32,34,36,38,40,42,44,46,48,50,52,54,56,58,-1,-1,60,62,-1,-1,64,66,68,70,72,74,76,78,80,82,84,86,88,90,92,-1,94,96,98,100,102,104,106,108,-1,-1,-1,-1,-1,-1,-1,-1,-1,-1,-1,-1,-1,-1,-1,-1,-1,-1,-1,-1,-1,-1,-1,-1,-1,-1,-1,-1,-1,-1,-1,-1,-1,-1,-1,-1,-1,-1,-1,-1,-1,-1,-1,-1,-1,-1,-1,-1,-1,-1],"split_conditions":[6.2625E2,2.6161E2,2.2E1,6.99E0,1E0,4E0,1E0,1E0,2.339E1,2.2E1,2.9E1,5.2E1,2.368E3,1E0,2.8E1,2.2E1,4E0,1E0,2.3883E2,5.3E1,2.949E3,1E0,5.3E1,3.899E3,5.3E1,2.7E1,5.3E1,1E0,2.8E1,-7.819515E-2,-5.1518377E-2,1E0,2.949E3,2.428651E-2,8.067966E-2,1E0,1.893E1,1E0,2.2E1,4E0,1E0,5.3E1,5.6299E4,2.9497E2,2.9497E2,2.9497E2,2.9497E2,1E0,1E0,1E0,-2.5249057E-2,9.2059E2,1E0,7.2354E4,1.2E1,1E0,4.715E3,1E0,5.3E1,-2.52615E-2,-3.1325158E-2,-2.7572298E-2,-2.570414E-2,-2.4868878E-2,-1.852679E-2,3.5602823E-2,-6.212156E-3,-2.5238384E-2,-2.4972962E-2,-2.5023006E-2,-1.5087551E-2,-1.5924312E-2,-2.535305E-2,-2.5497952E-2,-3.6508687E-2,-9.888343E-3,9.0858996E-2,-2.6780406E-2,-1.6774205E-2,1.07628275E-2,2.5427502E-2,7.352642E-2,2.7581597E-2,-1.3077383E-2,2.824572E-2,3.6615305E-2,2.4997832E-2,5.5194847E-2,2.8438963E-2,-8.676849E-3,4.2587332E-2,-1.0477404E-1,2.7279342E-2,3.7079602E-2,1.4569122E-1,5.232117E-3,-2.3294576E-2,-2.787016E-2,-5.384321E-2,-2.8715888E-2,2.9694162E-2,3.0119652E-2,1.4327206E-2,1.8264871E-2,-2.2364557E-2,-4.2548187E-2,-1.18912585E-1,-4.351545E-2,-3.0820785E-2],"split_indices":[0,0,24,0,7,24,16,6,0,24,3,3,2,19,3,24,24,6,0,3,4,22,3,4,3,3,3,9,3,0,0,18,4,0,0,18,0,13,24,24,12,3,4,0,0,0,0,22,11,22,0,0,22,4,24,22,4,22,3,0,0,0,0,0,0,0,0,0,0,0,0,0,0,0,0,0,0,0,0,0,0,0,0,0,0,0,0,0,0,0,0,0,0,0,0,0,0,0,0,0,0,0,0,0,0,0,0,0,0],"split_type":[0,0,0,0,0,0,0,0,0,0,0,0,0,0,0,0,0,0,0,0,0,0,0,0,0,0,0,0,0,0,0,0,0,0,0,0,0,0,0,0,0,0,0,0,0,0,0,0,0,0,0,0,0,0,0,0,0,0,0,0,0,0,0,0,0,0,0,0,0,0,0,0,0,0,0,0,0,0,0,0,0,0,0,0,0,0,0,0,0,0,0,0,0,0,0,0,0,0,0,0,0,0,0,0,0,0,0,0,0],"sum_hessian":[1.481915E6,1.470323E6,1.1592E4,1.441357E6,2.8966E4,8.153E3,3.439E3,2.66356E5,1.175001E6,2.7127E4,1.839E3,1.474E3,6.679E3,3.341E3,9.8E1,2.66331E5,2.5E1,2.49177E5,9.25824E5,2.3893E4,3.234E3,2.01E2,1.638E3,7.02E2,7.72E2,2.395E3,4.284E3,3.204E3,1.37E2,1.4E1,8.4E1,2.35355E5,3.0976E4,2.3E1,2E0,2.48505E5,6.72E2,9.20074E5,5.75E3,1.6544E4,7.349E3,6.43E2,2.591E3,8.2E1,1.19E2,6.97E2,9.41E2,2.87E2,4.15E2,2.6E1,7.46E2,5E1,2.345E3,3.304E3,9.8E2,2.238E3,9.66E2,6E0,1.31E2,2.35155E5,2E2,5.835E3,2.5141E4,2.45112E5,3.393E3,5.19E2,1.53E2,8.53283E5,6.6791E4,5.084E3,6.66E2,9.17E2,1.5627E4,6.83E3,5.19E2,5.76E2,6.7E1,2.206E3,3.85E2,2.6E1,5.6E1,4.8E1,7.1E1,2.27E2,4.7E2,2.3E2,7.11E2,4.8E1,2.39E2,3.25E2,9E1,7E0,1.9E1,2.8E1,2.2E1,6.57E2,1.688E3,3.053E3,2.51E2,6.65E2,3.15E2,1.332E3,9.06E2,4.75E2,4.91E2,3E0,3E0,6.3E1,6.8E1],"tree_param":{"num_deleted":"0","num_feature":"26","num_nodes":"109","size_leaf_vector":"0"}},{"base_weights":[-5.8208905E-2,-5.8495082E-2,-2.1908222E-2,-5.8658626E-2,-5.035532E-2,-4.247605E-2,2.685108E-2,-5.796475E-2,-5.8825884E-2,-5.755334E-2,5.57959E-2,-3.763635E-2,-1.0163844E-1,-3.3129822E-3,6.105903E-2,-5.85461E-2,-4.9057722E-2,-5.875039E-2,-6.031085E-2,-5.8883607E-2,-4.0037747E-2,6.972016E-2,4.1886624E-2,3.9390646E-2,-4.1178986E-2,-6.2090397E-2,-1.4047588E-1,5.858833E-2,-3.6842242E-2,6.713919E-2,-7.383733E-2,-5.5446766E-2,-5.8919568E-2,-5.0024256E-2,2.458844E-2,-5.8804624E-2,-5.773344E-2,-5.4873753E-2,-6.0770642E-2,-5.9186675E-2,-4.850727E-2,-5.7993725E-2,2.9121317E-2,1.099676E-1,6.1463516E-2,5.8864135E-2,-6.673811E-3,3.850364E-1,1.3618896E-2,-2.3360105E-2,-5.2738998E-2,-8.282229E-2,-4.2015243E-2,-1.1140131E-1,-1.8558228E-1,8.1740215E-2,5.7584736E-3,-7.746329E-2,9.688562E-2,9.146852E-2,6.427804E-2,-1.7238516E-2,-3.443059E-2,-1.4320692E-2,-1.7365536E-2,-1.7712766E-2,-1.7088577E-2,-1.6006192E-2,-9.952362E-3,-1.8295802E-2,7.904702E-2,-1.7827904E-2,-1.7625589E-2,-1.7753173E-2,-1.4968728E-2,-1.6549263E-2,2.4461998E-3,-1.8094838E-2,-1.9640591E-2,-1.7778536E-2,-1.448577E-2,5.9543652E-3,-2.2165738E-2,-2.169283E-2,-7.5188824E-3,5.382005E-2,-1.1060194E-2,2.8282432E-2,4.4983245E-2,1.7710548E-2,1.9993896E-2,2.011573E-2,8.548691E-3,-3.697918E-2,2.1982133E-2,1.8673699E-1,6.5074556E-2,9.3752466E-2,-6.9351126E-3,4.5972224E-3,-1.1178787E-2,-1.9797763E-2,-4.9899616E-3,-3.3037134E-2,-2.2161236E-2,-2.2295099E-2,-1.1582008E-2,-4.2837624E-2,-1.3135556E-2,-4.980262E-2,-6.0196992E-2,2.8822636E-2,5.8676E-3,-1.427941E-1,7.803572E-3,-3.7445547E-3,-3.5969026E-2,4.696095E-2,-2.7724847E-2,1.3102925E-1,1.9661117E-2,-1.13117555E-2,2.0108886E-2],"categories":[],"categories_nodes":[],"categories_segments":[],"categories_sizes":[],"default_left":[0,0,0,0,0,0,0,0,0,0,0,0,0,0,0,0,0,0,0,0,0,0,0,0,0,0,0,0,0,0,0,0,0,0,0,0,0,0,0,0,0,0,0,0,0,0,0,0,0,0,0,0,0,0,0,0,0,0,0,0,0,0,0,0,0,0,0,0,0,0,0,0,0,0,0,0,0,0,0,0,0,0,0,0,0,0,0,0,0,0,0,0,0,0,0,0,0,0,0,0,0,0,0,0,0,0,0,0,0,0,0,0,0,0,0,0,0,0,0,0,0,0,0],"id":6,"left_children":[1,3,5,7,9,11,13,15,17,19,21,23,25,27,29,31,33,35,37,39,41,43,45,47,49,51,53,55,57,59,61,63,65,67,69,71,73,75,77,79,81,83,85,87,89,91,93,95,97,99,101,103,105,107,109,111,113,115,117,119,121,-1,-1,-1,-1,-1,-1,-1,-1,-1,-1,-1,-1,-1,-1,-1,-1,-1,-1,-1,-1,-1,-1,-1,-1,-1,-1,-1,-1,-1,-1,-1,-1,-1,-1,-1,-1,-1,-1,-1,-1,-1,-1,-1,-1,-1,-1,-1,-1,-1,-1,-1,-1,-1,-1,-1,-1,-1,-1,-1,-1,-1,-1],"loss_changes":[1.5393555E1,1.9545898E0,1.1627446E1,1.6357422E-1,2.2136276E1,2.3308945E0,3.5497687E0,1.4470825E0,1.2646484E-1,6.297302E-1,3.5344458E-1,2.058854E0,9.3742037E-1,3.7982569E0,1.3271065E0,3.010254E-1,1.2229156E0,5.7128906E-2,1.3700867E-1,7.6416016E-2,2.383497E0,2.9830027E-1,7.613466E-1,2.9521778E0,1.4835186E0,1.2429237E-1,3.858757E-1,7.859895E-1,6.455487E0,1.01528645E-1,4.032445E-2,5.2906036E-1,5.316162E-2,9.4870377E-1,4.5750527E0,3.100586E-2,6.308594E-1,8.0779076E-2,1.0658264E-1,1.7189026E-2,1.252223E0,7.1617126E-1,3.9336252E0,8.3102584E-2,5.681038E-3,1.6817713E-1,2.246096E0,7.830334E-1,3.4110174E0,1.5268689E0,2.0905552E0,2.8523445E-2,1.4526993E-2,3.9914942E-1,2.096653E-3,3.9657092E-1,1.9344832E0,2.5104833E0,3.1423545E0,1.4040191E0,3.909006E-1,0E0,0E0,0E0,0E0,0E0,0E0,0E0,0E0,0E0,0E0,0E0,0E0,0E0,0E0,0E0,0E0,0E0,0E0,0E0,0E0,0E0,0E0,0E0,0E0,0E0,0E0,0E0,0E0,0E0,0E0,0E0,0E0,0E0,0E0,0E0,0E0,0E0,0E0,0E0,0E0,0E0,0E0,0E0,0E0,0E0,0E0,0E0,0E0,0E0,0E0,0E0,0E0,0E0,0E0,0E0,0E0,0E0,0E0,0E0,0E0,0E0,0E0],"parents":[2147483647,0,0,1,1,2,2,3,3,4,4,5,5,6,6,7,7,8,8,9,9,10,10,11,11,12,12,13,13,14,14,15,15,16,16,17,17,18,18,19,19,20,20,21,21,22,22,23,23,24,24,25,25,26,26,27,27,28,28,29,29,30,30,31,31,32,32,33,33,34,34,35,35,36,36,37,37,38,38,39,39,40,40,41,41,42,42,43,43,44,44,45,45,46,46,47,47,48,48,49,49,50,50,51,51,52,52,53,53,54,54,55,55,56,56,57,57,58,58,59,59,60,60],"right_children":[2,4,6,8,10,12,14,16,18,20,22,24,26,28,30,32,34,36,38,40,42,44,46,48,50,52,54,56,58,60,62,64,66,68,70,72,74,76,78,80,82,84,86,88,90,92,94,96,98,100,102,104,106,108,110,112,114,116,118,120,122,-1,-1,-1,-1,-1,-1,-1,-1,-1,-1,-1,-1,-1,-1,-1,-1,-1,-1,-1,-1,-1,-1,-1,-1,-1,-1,-1,-1,-1,-1,-1,-1,-1,-1,-1,-1,-1,-1,-1,-1,-1,-1,-1,-1,-1,-1,-1,-1,-1,-1,-1,-1,-1,-1,-1,-1,-1,-1,-1,-1,-1,-1],"split_conditions":[6.2625E2,2.6161E2,2.2E1,4.195E3,1E0,1E0,5.2E1,2.3E1,2.3E1,1E0,2.87E3,2.6E1,5.3E1,2.326E3,1E0,4E0,2.1497E2,2.2E1,5.582E3,1E0,4.1972E2,2.9497E2,4E0,8.04E2,2.401E3,1E0,3.1916E4,1.6163E4,4.8409E4,1.2222E4,4.6858E4,2.017E1,1E0,5.3E1,1E0,2.8E1,5.9428E4,2.3883E2,9.0375E4,9.5E1,4.82E3,5.4E1,2.47E3,1E0,1.2032E4,1.3878E4,5.3E1,1E0,1.2E1,1E0,5.3E1,2.121E3,2.6E1,1.6793E4,2.368E3,6.8881E4,1.8128E4,2.87E3,8.3248E4,5.3E1,5.3E1,-1.7238516E-2,-3.443059E-2,-1.4320692E-2,-1.7365536E-2,-1.7712766E-2,-1.7088577E-2,-1.6006192E-2,-9.952362E-3,-1.8295802E-2,7.904702E-2,-1.7827904E-2,-1.7625589E-2,-1.7753173E-2,-1.4968728E-2,-1.6549263E-2,2.4461998E-3,-1.8094838E-2,-1.9640591E-2,-1.7778536E-2,-1.448577E-2,5.9543652E-3,-2.2165738E-2,-2.169283E-2,-7.5188824E-3,5.382005E-2,-1.1060194E-2,2.8282432E-2,4.4983245E-2,1.7710548E-2,1.9993896E-2,2.011573E-2,8.548691E-3,-3.697918E-2,2.1982133E-2,1.8673699E-1,6.5074556E-2,9.3752466E-2,-6.9351126E-3,4.5972224E-3,-1.1178787E-2,-1.9797763E-2,-4.9899616E-3,-3.3037134E-2,-2.2161236E-2,-2.2295099E-2,-1.1582008E-2,-4.2837624E-2,-1.3135556E-2,-4.980262E-2,-6.0196992E-2,2.8822636E-2,5.8676E-3,-1.427941E-1,7.803572E-3,-3.7445547E-3,-3.5969026E-2,4.696095E-2,-2.7724847E-2,1.3102925E-1,1.9661117E-2,-1.13117555E-2,2.0108886E-2],"split_indices":[0,0,24,4,7,19,3,24,24,12,2,3,3,4,19,24,0,24,4,8,0,0,24,2,2,22,4,2,4,1,4,0,16,3,8,3,4,0,4,3,4,3,2,22,4,4,3,11,24,22,3,2,3,4,2,1,2,2,4,3,3,0,0,0,0,0,0,0,0,0,0,0,0,0,0,0,0,0,0,0,0,0,0,0,0,0,0,0,0,0,0,0,0,0,0,0,0,0,0,0,0,0,0,0,0,0,0,0,0,0,0,0,0,0,0,0,0,0,0,0,0,0,0],"split_type":[0,0,0,0,0,0,0,0,0,0,0,0,0,0,0,0,0,0,0,0,0,0,0,0,0,0,0,0,0,0,0,0,0,0,0,0,0,0,0,0,0,0,0,0,0,0,0,0,0,0,0,0,0,0,0,0,0,0,0,0,0,0,0,0,0,0,0,0,0,0,0,0,0,0,0,0,0,0,0,0,0,0,0,0,0,0,0,0,0,0,0,0,0,0,0,0,0,0,0,0,0,0,0,0,0,0,0,0,0,0,0,0,0,0,0,0,0,0,0,0,0,0,0],"sum_hessian":[1.481915E6,1.470323E6,1.1592E4,1.441357E6,2.8966E4,8.153E3,3.439E3,2.8002E5,1.161337E6,2.7127E4,1.839E3,7.538E3,6.15E2,1.828E3,1.611E3,2.62858E5,1.7162E4,1.105193E6,5.6144E4,2.521E4,1.917E3,9.17E2,9.22E2,3.31E2,7.207E3,3.06E2,3.09E2,6.42E2,1.186E3,1.542E3,6.9E1,2.8284E4,2.34574E5,1.694E4,2.22E2,1.049185E6,5.6008E4,4.387E3,5.1757E4,2.449E4,7.2E2,1.522E3,3.95E2,1.54E2,7.63E2,6.83E2,2.39E2,2.2E1,3.09E2,2.837E3,4.37E3,1.49E2,1.57E2,1.9E2,1.19E2,4.46E2,1.96E2,9.1E2,2.76E2,1.59E2,1.383E3,5.1E1,1.8E1,6.8E3,2.1484E4,2.20681E5,1.3893E4,1.4143E4,2.797E3,1.64E2,5.8E1,8.1849E4,9.67336E5,4.729E4,8.718E3,4.367E3,2E1,4.7204E4,4.553E3,2.4318E4,1.72E2,1.95E2,5.25E2,1.06E3,4.62E2,1.2E2,2.75E2,1.13E2,4.1E1,5.28E2,2.35E2,5.37E2,1.46E2,9.7E1,1.42E2,8E0,1.4E1,3.3E1,2.76E2,7.5E2,2.087E3,3.196E3,1.174E3,3.4E1,1.15E2,1.3E1,1.44E2,1.29E2,6.1E1,5.7E1,6.2E1,3.62E2,8.4E1,7E0,1.89E2,3.6E2,5.5E2,2.1E2,6.6E1,1E1,1.49E2,3.6E1,1.347E3],"tree_param":{"num_deleted":"0","num_feature":"26","num_nodes":"123","size_leaf_vector":"0"}},{"base_weights":[-4.0746246E-2,-4.09466E-2,-1.5332369E-2,-4.1061144E-2,-3.5245623E-2,-2.9726833E-2,1.8791988E-2,-4.1114308E-2,-3.9214298E-2,-4.0288623E-2,3.9124865E-2,-3.972506E-2,-6.6893008E-3,2.2865813E-2,-1.1892028E-1,-4.1194797E-2,-3.9883986E-2,-4.032732E-2,-5.854186E-3,-4.1220445E-2,-2.8019361E-2,7.014218E-2,3.5278235E-2,-1.8004064E-2,-6.528109E-2,-3.853515E-2,1.7937167E-2,4.1879214E-2,-7.664391E-4,-1.0969091E-1,-1.8278337E-1,-4.1835267E-2,-4.0948056E-2,-4.077783E-2,-2.8453695E-2,-4.1011624E-2,-3.5766155E-2,1.3006389E-1,-4.130542E-2,-4.1431986E-2,-3.3977572E-2,3.647329E-2,-3.9483357E-2,5.2452076E-2,1.8787318E-1,4.9621146E-2,1.7829444E-2,-3.218395E-2,1.4836885E-2,-5.993582E-2,-9.613873E-2,-9.559192E-3,-4.8999835E-2,-1.5221797E-2,4.8598174E-2,1.0726885E-2,6.1638966E-2,-4.943699E-2,5.55012E-2,-5.0563257E-2,-1.0179745E-1,-6.119629E-2,-1.747284E-2,-1.2609598E-2,3.1546593E-2,-1.0734205E-2,-1.2369755E-2,-1.24862725E-2,-1.2122997E-2,-1.2100629E-2,2.7715302E-1,-8.341057E-3,-1.2319532E-2,-1.2052765E-2,-4.3516466E-3,3.0728357E-3,1.6752093E-1,-1.6246055E-4,-1.2681772E-2,-1.2574525E-2,-1.1941164E-2,-1.6663887E-2,1.1040122E-2,-2.4698868E-2,3.8092323E-2,4.1666483E-3,-1.47507945E-2,9.384122E-3,2.0001566E-2,2.7069036E-2,7.297821E-2,1.9100389E-2,1.0805124E-2,-1.5639307E-2,1.6525675E-2,4.4375233E-4,-1.5879018E-2,2.5459459E-2,-1.0691003E-2,-2.319692E-2,-1.4470291E-2,-3.8333077E-2,-1.7406646E-2,6.2420312E-2,-7.729301E-3,-5.2180447E-2,-1.4055604E-2,1.9514617E-2,-1.1490928E-2,1.0874432E-1,1.0916085E-2,1.1908149E-2,-2.5185153E-2,2.8359048E-2,1.2162408E-2,-2.8305557E-2,1.2945869E-2,2.0227786E-2,-1.5943322E-2,-2.2861306E-2,-3.6476098E-2],"categories":[],"categories_nodes":[],"categories_segments":[],"categories_sizes":[],"default_left":[0,0,0,0,0,0,0,0,0,0,0,0,0,0,0,0,0,0,0,0,0,0,0,0,0,0,0,0,0,0,0,0,0,0,0,0,0,0,0,0,0,0,0,0,0,0,0,0,0,0,0,0,0,0,0,0,0,0,0,0,0,0,0,0,0,0,0,0,0,0,0,0,0,0,0,0,0,0,0,0,0,0,0,0,0,0,0,0,0,0,0,0,0,0,0,0,0,0,0,0,0,0,0,0,0,0,0,0,0,0,0,0,0,0,0,0,0,0,0,0,0],"id":7,"left_children":[1,3,5,7,9,11,13,15,17,19,21,23,25,27,29,31,33,35,37,39,41,43,45,47,49,51,53,55,57,59,61,63,65,67,69,71,73,75,77,79,81,83,85,87,89,91,93,95,97,99,101,103,105,107,109,111,113,115,117,-1,119,-1,-1,-1,-1,-1,-1,-1,-1,-1,-1,-1,-1,-1,-1,-1,-1,-1,-1,-1,-1,-1,-1,-1,-1,-1,-1,-1,-1,-1,-1,-1,-1,-1,-1,-1,-1,-1,-1,-1,-1,-1,-1,-1,-1,-1,-1,-1,-1,-1,-1,-1,-1,-1,-1,-1,-1,-1,-1,-1,-1],"loss_changes":[7.544922E0,9.5874023E-1,5.6950603E0,1.3989258E-1,1.0865654E1,1.8778825E0,1.9326134E0,1.3696289E-1,1.4980545E0,3.089943E-1,2.1705961E-1,3.155138E0,1.9370064E0,1.5016913E0,3.830254E-2,2.0629883E-1,8.7809753E-1,1.20414734E-1,6.2886486E0,3.7223816E-2,1.4195008E0,4.1084576E-1,4.09302E-1,1.4324462E0,4.250679E-1,3.2610404E-1,1.4169853E0,1.1393602E0,4.085962E0,2.418816E-2,1.7167866E-2,1.057782E1,1.3939209E0,2.3071289E-2,7.069907E1,2.2842407E-2,4.7774887E-1,1.385178E1,4.0781856E-2,1.7593384E-2,1.1027156E0,3.128473E0,8.428118E-1,5.1201582E-2,1.1866397E-1,1.6950035E-1,1.934256E0,1.5001962E0,3.283097E0,4.497757E-1,4.5566702E-1,1.0175165E0,2.0410657E-1,1.2438325E0,2.7618265E0,1.977943E0,7.8238535E-1,3.3310018E0,9.0011907E-1,0E0,3.1759083E-2,0E0,0E0,0E0,0E0,0E0,0E0,0E0,0E0,0E0,0E0,0E0,0E0,0E0,0E0,0E0,0E0,0E0,0E0,0E0,0E0,0E0,0E0,0E0,0E0,0E0,0E0,0E0,0E0,0E0,0E0,0E0,0E0,0E0,0E0,0E0,0E0,0E0,0E0,0E0,0E0,0E0,0E0,0E0,0E0,0E0,0E0,0E0,0E0,0E0,0E0,0E0,0E0,0E0,0E0,0E0,0E0,0E0,0E0,0E0,0E0],"parents":[2147483647,0,0,1,1,2,2,3,3,4,4,5,5,6,6,7,7,8,8,9,9,10,10,11,11,12,12,13,13,14,14,15,15,16,16,17,17,18,18,19,19,20,20,21,21,22,22,23,23,24,24,25,25,26,26,27,27,28,28,29,29,30,30,31,31,32,32,33,33,34,34,35,35,36,36,37,37,38,38,39,39,40,40,41,41,42,42,43,43,44,44,45,45,46,46,47,47,48,48,49,49,50,50,51,51,52,52,53,53,54,54,55,55,56,56,57,57,58,58,60,60],"right_children":[2,4,6,8,10,12,14,16,18,20,22,24,26,28,30,32,34,36,38,40,42,44,46,48,50,52,54,56,58,60,62,64,66,68,70,72,74,76,78,80,82,84,86,88,90,92,94,96,98,100,102,104,106,108,110,112,114,116,118,-1,120,-1,-1,-1,-1,-1,-1,-1,-1,-1,-1,-1,-1,-1,-1,-1,-1,-1,-1,-1,-1,-1,-1,-1,-1,-1,-1,-1,-1,-1,-1,-1,-1,-1,-1,-1,-1,-1,-1,-1,-1,-1,-1,-1,-1,-1,-1,-1,-1,-1,-1,-1,-1,-1,-1,-1,-1,-1,-1,-1,-1],"split_conditions":[6.2625E2,2.6161E2,2.2E1,1E0,1E0,1E0,1E0,1E0,9.96E0,1E0,2.9E1,9.2059E2,9.2059E2,4.715E3,3.87E4,1.649E1,2.2E1,8.76E0,1.25E1,1E0,1.985E3,1E0,1E0,1E0,1E0,2.9661E4,1.1858E4,2.3E1,3.1916E4,1.572E3,7.8584E4,1E0,2.208E1,6.13E0,5.3E1,1.843E3,2.2E1,2.2E1,1.36E1,5.0058E2,2.2E1,3.3932E2,2.304E3,1E0,1E0,5.3E1,5.3E1,2.206E3,1E0,1E0,5.2E1,2.8E1,2.3E1,4E0,2.6E1,1.899E3,4.7E1,5.3E1,8.7857E4,-5.0563257E-2,1E0,-6.119629E-2,-1.747284E-2,-1.2609598E-2,3.1546593E-2,-1.0734205E-2,-1.2369755E-2,-1.24862725E-2,-1.2122997E-2,-1.2100629E-2,2.7715302E-1,-8.341057E-3,-1.2319532E-2,-1.2052765E-2,-4.3516466E-3,3.0728357E-3,1.6752093E-1,-1.6246055E-4,-1.2681772E-2,-1.2574525E-2,-1.1941164E-2,-1.6663887E-2,1.1040122E-2,-2.4698868E-2,3.8092323E-2,4.1666483E-3,-1.47507945E-2,9.384122E-3,2.0001566E-2,2.7069036E-2,7.297821E-2,1.9100389E-2,1.0805124E-2,-1.5639307E-2,1.6525675E-2,4.4375233E-4,-1.5879018E-2,2.5459459E-2,-1.0691003E-2,-2.319692E-2,-1.4470291E-2,-3.8333077E-2,-1.7406646E-2,6.2420312E-2,-7.729301E-3,-5.2180447E-2,-1.4055604E-2,1.9514617E-2,-1.1490928E-2,1.0874432E-1,1.0916085E-2,1.1908149E-2,-2.5185153E-2,2.8359048E-2,1.2162408E-2,-2.8305557E-2,1.2945869E-2,2.0227786E-2,-1.5943322E-2,-2.2861306E-2,-3.6476098E-2],"split_indices":[0,0,24,19,7,11,16,16,0,12,3,0,0,4,4,0,24,0,0,8,4,20,22,17,17,1,4,24,4,4,1,6,0,0,3,1,24,24,0,0,24,0,2,22,22,3,3,2,22,22,3,3,3,24,3,4,3,3,4,0,22,0,0,0,0,0,0,0,0,0,0,0,0,0,0,0,0,0,0,0,0,0,0,0,0,0,0,0,0,0,0,0,0,0,0,0,0,0,0,0,0,0,0,0,0,0,0,0,0,0,0,0,0,0,0,0,0,0,0,0,0],"split_type":[0,0,0,0,0,0,0,0,0,0,0,0,0,0,0,0,0,0,0,0,0,0,0,0,0,0,0,0,0,0,0,0,0,0,0,0,0,0,0,0,0,0,0,0,0,0,0,0,0,0,0,0,0,0,0,0,0,0,0,0,0,0,0,0,0,0,0,0,0,0,0,0,0,0,0,0,0,0,0,0,0,0,0,0,0,0,0,0,0,0,0,0,0,0,0,0,0,0,0,0,0,0,0,0,0,0,0,0,0,0,0,0,0,0,0,0,0,0,0,0,0],"sum_hessian":[1.481915E6,1.470323E6,1.1592E4,1.441357E6,2.8966E4,8.153E3,3.439E3,1.401006E6,4.0351E4,2.7127E4,1.839E3,5.685E3,2.468E3,3.341E3,9.8E1,1.314948E6,8.6058E4,3.9048E4,1.303E3,2.521E4,1.917E3,2.01E2,1.638E3,3.074E3,2.611E3,1.076E3,1.392E3,1.851E3,1.49E3,8.8E1,1E1,3.65649E5,9.49299E5,7.9814E4,6.244E3,3.3947E4,5.101E3,2.69E2,1.034E3,2.449E4,7.2E2,2.89E2,1.628E3,1.76E2,2.5E1,8.98E2,7.4E2,2.147E3,9.27E2,2.228E3,3.83E2,2.86E2,7.9E2,6.69E2,7.23E2,7.19E2,1.132E3,7.99E2,6.91E2,8E0,8E1,8E0,2E0,3.65161E5,4.88E2,4.9538E4,8.99761E5,2.4211E4,5.5603E4,6.168E3,7.6E1,1.39E2,3.3808E4,4.224E3,8.77E2,2.11E2,5.8E1,2.4E1,1.01E3,1.8867E4,5.623E3,5.52E2,1.68E2,1.25E2,1.64E2,2.5E2,1.378E3,7.2E1,1.04E2,1E1,1.5E1,4.4E2,4.58E2,2.57E2,4.83E2,8.19E2,1.328E3,3.88E2,5.39E2,8.94E2,1.334E3,2.08E2,1.75E2,1.9E1,2.67E2,1.2E1,7.78E2,1.49E2,5.2E2,2.6E1,6.97E2,5.51E2,1.68E2,4.41E2,6.91E2,5.38E2,2.61E2,6.23E2,6.8E1,3.7E1,4.3E1],"tree_param":{"num_deleted":"0","num_feature":"26","num_nodes":"121","size_leaf_vector":"0"}},{"base_weights":[-2.8522143E-2,-2.8662287E-2,-1.0745627E-2,-2.8752277E-2,-2.4940208E-2,-2.0806076E-2,1.3104272E-2,-2.8830191E-2,-2.774883E-2,-2.832356E-2,1.7986309E-2,-2.7824089E-2,-4.6354732E-3,4.28226E-3,5.314448E-2,-2.8921044E-2,-2.7978634E-2,-2.8654924E-2,-2.325703E-2,-2.9395888E-2,-2.0528628E-2,5.069892E-2,-3.330092E-3,-1.2603061E-2,-4.5732524E-2,-2.6985325E-2,1.2647675E-2,-2.5078673E-2,2.6396101E-2,1.04136564E-1,3.126909E-2,-2.882767E-2,-2.9880142E-2,-2.4369957E-2,-2.9239297E-2,-2.8882742E-2,-2.8003655E-2,-3.444441E-2,-1.8354954E-2,-2.7984262E-2,-3.2454647E-2,3.1513505E-2,-2.9921532E-2,8.173078E-1,3.423665E-2,-2.7311472E-2,4.7814175E-2,-2.3440993E-3,-5.2097984E-2,-5.577398E-2,-3.735488E-2,-2.0320354E-2,-6.7103714E-2,2.5507328E-1,1.017912E-2,1.8797109E-2,-7.1826816E-2,-1.4646758E-2,4.0766504E-2,1.5228513E-1,2.7519137E-2,2.3225786E-2,3.8988926E-2,-8.661567E-3,-8.381305E-3,-9.257931E-3,-6.6728573E-3,-8.404045E-3,-2.0837844E-3,-8.64931E-3,-9.386694E-3,-8.750818E-3,-8.610865E-3,-8.210088E-3,-8.687151E-3,-1.2707413E-2,-9.781991E-3,9.760682E-3,-8.223884E-3,-8.723682E-3,-4.1918242E-3,-9.067258E-3,-1.7660419E-2,-2.2327718E-3,8.1713974E-2,-9.328383E-3,3.402994E-2,2.6974452E-1,7.340948E-2,1.2621261E-2,7.5706476E-3,-1.7155522E-2,1.7152702E-2,1.7989673E-1,1.1578212E-2,1.855437E-2,-1.9626876E-3,-4.9453503E-3,-3.2349154E-2,-6.1120763E-3,-1.7812215E-2,-1.4208542E-2,-2.6543105E-3,5.8631008E-3,-9.013417E-3,-3.447122E-2,-7.621733E-3,1.3580394E-1,-2.5154596E-2,1.8951904E-2,-5.971835E-5,9.203596E-4,4.3106526E-2,-3.7390396E-2,7.07079E-3,-3.735232E-2,8.377337E-5,2.9932985E-2,9.902702E-3,3.4741785E-2,1.0608567E-1,-2.9681316E-2,2.5202733E-2,6.7442018E-3,1.5052057E-2,1.0033294E-2,1.2721824E-2],"categories":[],"categories_nodes":[],"categories_segments":[],"categories_sizes":[],"default_left":[0,0,0,0,0,0,0,0,0,0,0,0,0,0,0,0,0,0,0,0,0,0,0,0,0,0,0,0,0,0,0,0,0,0,0,0,0,0,0,0,0,0,0,0,0,0,0,0,0,0,0,0,0,0,0,0,0,0,0,0,0,0,0,0,0,0,0,0,0,0,0,0,0,0,0,0,0,0,0,0,0,0,0,0,0,0,0,0,0,0,0,0,0,0,0,0,0,0,0,0,0,0,0,0,0,0,0,0,0,0,0,0,0,0,0,0,0,0,0,0,0,0,0,0,0,0,0],"id":8,"left_children":[1,3,5,7,9,11,13,15,17,19,21,23,25,27,29,31,33,35,37,39,41,43,45,47,49,51,53,55,57,59,61,63,65,67,69,71,73,75,77,79,81,83,85,87,89,91,93,95,97,99,101,103,105,107,109,111,113,115,117,119,121,123,125,-1,-1,-1,-1,-1,-1,-1,-1,-1,-1,-1,-1,-1,-1,-1,-1,-1,-1,-1,-1,-1,-1,-1,-1,-1,-1,-1,-1,-1,-1,-1,-1,-1,-1,-1,-1,-1,-1,-1,-1,-1,-1,-1,-1,-1,-1,-1,-1,-1,-1,-1,-1,-1,-1,-1,-1,-1,-1,-1,-1,-1,-1,-1,-1],"loss_changes":[3.6914062E0,4.918213E-1,2.7819052E0,1.11450195E-1,5.0426483E0,9.252317E-1,1.2149016E0,1.0229492E-1,4.2044067E-1,2.6838684E-1,1.7692571E0,1.5493407E0,9.5405626E-1,1.83164E0,6.894517E-1,1.06933594E-1,5.836792E-1,1.197052E-2,9.521265E-1,1.2122917E-1,1.9049231E0,1.2604759E1,1.8864521E0,1.2457968E0,2.1764803E-1,2.866133E-1,8.3103186E-1,2.487297E0,9.495889E-1,6.8196654E-1,2.6166975E-2,4.2297363E-2,7.980728E-1,2.1115017E0,7.875824E-2,2.4528503E-3,1.2771606E-2,7.5582504E-2,5.570286E0,2.9657078E-1,5.2408695E-1,5.5944204E0,5.58475E-1,7.6409626E-1,6.811559E-2,2.6458297E0,2.4750924E0,6.585001E-1,1.2566044E0,1.4993858E-1,4.066602E-1,3.5916573E-1,3.0203676E-1,9.7558105E-1,7.589852E-1,1.2293022E0,2.960045E0,6.854649E-1,5.4236937E-1,7.963209E-1,5.297904E-1,3.2091737E-3,2.7690232E-3,0E0,0E0,0E0,0E0,0E0,0E0,0E0,0E0,0E0,0E0,0E0,0E0,0E0,0E0,0E0,0E0,0E0,0E0,0E0,0E0,0E0,0E0,0E0,0E0,0E0,0E0,0E0,0E0,0E0,0E0,0E0,0E0,0E0,0E0,0E0,0E0,0E0,0E0,0E0,0E0,0E0,0E0,0E0,0E0,0E0,0E0,0E0,0E0,0E0,0E0,0E0,0E0,0E0,0E0,0E0,0E0,0E0,0E0,0E0,0E0,0E0,0E0,0E0,0E0],"parents":[2147483647,0,0,1,1,2,2,3,3,4,4,5,5,6,6,7,7,8,8,9,9,10,10,11,11,12,12,13,13,14,14,15,15,16,16,17,17,18,18,19,19,20,20,21,21,22,22,23,23,24,24,25,25,26,26,27,27,28,28,29,29,30,30,31,31,32,32,33,33,34,34,35,35,36,36,37,37,38,38,39,39,40,40,41,41,42,42,43,43,44,44,45,45,46,46,47,47,48,48,49,49,50,50,51,51,52,52,53,53,54,54,55,55,56,56,57,57,58,58,59,59,60,60,61,61,62,62],"right_children":[2,4,6,8,10,12,14,16,18,20,22,24,26,28,30,32,34,36,38,40,42,44,46,48,50,52,54,56,58,60,62,64,66,68,70,72,74,76,78,80,82,84,86,88,90,92,94,96,98,100,102,104,106,108,110,112,114,116,118,120,122,124,126,-1,-1,-1,-1,-1,-1,-1,-1,-1,-1,-1,-1,-1,-1,-1,-1,-1,-1,-1,-1,-1,-1,-1,-1,-1,-1,-1,-1,-1,-1,-1,-1,-1,-1,-1,-1,-1,-1,-1,-1,-1,-1,-1,-1,-1,-1,-1,-1,-1,-1,-1,-1,-1,-1,-1,-1,-1,-1,-1,-1,-1,-1,-1,-1],"split_conditions":[6.2625E2,2.3883E2,2.2E1,1E0,1E0,1E0,1E0,1E0,2.2E1,2.2E1,1E0,9.2059E2,9.2059E2,1E0,5.3E1,2.2E1,2.339E1,3.6964E4,1.532E1,5.3E1,2.067E3,2.6161E2,5.3E1,1E0,1E0,5.9428E4,2.2E1,9.2059E2,9.2059E2,5.4896E4,1E0,1E0,1.029E2,2.2E1,2.2E1,2.143E1,7.3924E4,3.412E3,2.339E1,1E0,1E0,1E0,9.2E1,1E1,5.3E1,2.9497E2,2.6161E2,2.8E1,5.196E3,1.734E3,5.3E1,3.5E1,5.2E1,1E0,1.6858E4,6.6581E4,5.3E1,2.7E1,2.7E1,5.76E3,2.8E1,8.546E4,1.97E3,-8.661567E-3,-8.381305E-3,-9.257931E-3,-6.6728573E-3,-8.404045E-3,-2.0837844E-3,-8.64931E-3,-9.386694E-3,-8.750818E-3,-8.610865E-3,-8.210088E-3,-8.687151E-3,-1.2707413E-2,-9.781991E-3,9.760682E-3,-8.223884E-3,-8.723682E-3,-4.1918242E-3,-9.067258E-3,-1.7660419E-2,-2.2327718E-3,8.1713974E-2,-9.328383E-3,3.402994E-2,2.6974452E-1,7.340948E-2,1.2621261E-2,7.5706476E-3,-1.7155522E-2,1.7152702E-2,1.7989673E-1,1.1578212E-2,1.855437E-2,-1.9626876E-3,-4.9453503E-3,-3.2349154E-2,-6.1120763E-3,-1.7812215E-2,-1.4208542E-2,-2.6543105E-3,5.8631008E-3,-9.013417E-3,-3.447122E-2,-7.621733E-3,1.3580394E-1,-2.5154596E-2,1.8951904E-2,-5.971835E-5,9.203596E-4,4.3106526E-2,-3.7390396E-2,7.07079E-3,-3.735232E-2,8.377337E-5,2.9932985E-2,9.902702E-3,3.4741785E-2,1.0608567E-1,-2.9681316E-2,2.5202733E-2,6.7442018E-3,1.5052057E-2,1.0033294E-2,1.2721824E-2],"split_indices":[0,0,24,14,7,11,17,10,24,24,22,0,0,11,3,24,0,4,0,3,4,0,3,16,9,4,3,0,0,1,22,18,0,24,24,0,4,4,0,12,12,8,3,24,3,0,0,3,2,4,3,3,3,21,1,4,3,3,3,2,3,4,2,0,0,0,0,0,0,0,0,0,0,0,0,0,0,0,0,0,0,0,0,0,0,0,0,0,0,0,0,0,0,0,0,0,0,0,0,0,0,0,0,0,0,0,0,0,0,0,0,0,0,0,0,0,0,0,0,0,0,0,0,0,0,0,0],"split_type":[0,0,0,0,0,0,0,0,0,0,0,0,0,0,0,0,0,0,0,0,0,0,0,0,0,0,0,0,0,0,0,0,0,0,0,0,0,0,0,0,0,0,0,0,0,0,0,0,0,0,0,0,0,0,0,0,0,0,0,0,0,0,0,0,0,0,0,0,0,0,0,0,0,0,0,0,0,0,0,0,0,0,0,0,0,0,0,0,0,0,0,0,0,0,0,0,0,0,0,0,0,0,0,0,0,0,0,0,0,0,0,0,0,0,0,0,0,0,0,0,0,0,0,0,0,0,0],"sum_hessian":[1.481915E6,1.470323E6,1.1592E4,1.435607E6,3.4716E4,8.153E3,3.439E3,1.332143E6,1.03464E5,3.218E4,2.536E3,5.685E3,2.468E3,2.819E3,6.2E2,1.203688E6,1.28455E5,8.6092E4,1.7372E4,2.8286E4,3.894E3,1E3,1.536E3,3.074E3,2.611E3,1.076E3,1.392E3,1.211E3,1.608E3,1.85E2,4.35E2,1.096927E6,1.06761E5,3.3262E4,9.5193E4,6.3749E4,2.2343E4,5.291E3,1.2081E4,1.9361E4,8.925E3,5.95E2,3.299E3,2E1,9.8E2,1.046E3,4.9E2,2.441E3,6.33E2,1.185E3,1.426E3,9.24E2,1.52E2,1.3E1,1.379E3,6.25E2,5.86E2,4.17E2,1.191E3,1.13E2,7.2E1,2.15E2,2.2E2,1.044976E6,5.1951E4,9.4621E4,1.214E4,2.7509E4,5.753E3,7.9394E4,1.5799E4,2.4516E4,3.9233E4,1.3415E4,8.928E3,9.93E2,4.298E3,1.825E3,1.0256E4,1.7957E4,1.404E3,8.232E3,6.93E2,5.13E2,8.2E1,3.273E3,2.6E1,1.7E1,3E0,5.22E2,4.58E2,7.73E2,2.73E2,7E0,4.83E2,1.49E2,2.292E3,3.87E2,2.46E2,1.1E2,1.075E3,1.055E3,3.71E2,1.81E2,7.43E2,7E1,8.2E1,8E0,5E0,2.25E2,1.154E3,5.56E2,6.9E1,3.77E2,2.09E2,4.9E1,3.68E2,1.37E2,1.054E3,9.7E1,1.6E1,2.2E1,5E1,2.11E2,4E0,8.8E1,1.32E2],"tree_param":{"num_deleted":"0","num_feature":"26","num_nodes":"127","size_leaf_vector":"0"}},{"base_weights":[-1.9965012E-2,-2.0063257E-2,-7.502964E-3,-2.0126672E-2,-1.7440304E-2,-1.8644208E-2,5.4969024E-3,-1.852882E-2,-2.0165399E-2,-1.9824486E-2,1.2809106E-2,-1.2649656E-2,-5.0362695E-2,-1.0423368E-2,3.3905346E-2,-1.997022E-2,-8.1878025E-3,-2.0102477E-2,-2.0968791E-2,-2.0578522E-2,-1.434329E-2,3.5852224E-2,-2.2064901E-3,1.2269776E-2,-2.0370904E-2,-7.243523E-2,-3.2346927E-2,-2.0977385E-2,4.9767256E-2,4.5414723E-2,-6.653697E-2,-2.0143671E-2,-1.3894173E-2,-1.3720861E-2,2.3964426E-2,-2.0018088E-2,-2.082673E-2,-2.0426095E-2,-2.4356604E-2,-1.958965E-2,-2.2721248E-2,1.0380252E-2,-2.5171086E-2,5.884561E-1,2.3986237E-2,-1.9118039E-2,3.38599E-2,8.559451E-2,-2.3139982E-2,-3.2814108E-2,-1.5491988E-3,9.4475746E-2,-9.006485E-2,-4.7354642E-2,9.050505E-2,7.885694E-3,-3.6368094E-2,9.6916266E-2,-7.0236914E-2,1.9352524E-1,2.7819362E-2,-4.6766788E-2,-2.8534023E-2,-5.5592684E-3,-6.0986425E-3,1.4376843E-1,-6.1452743E-3,3.0268004E-4,-7.3401635E-3,2.4467213E-3,1.8340209E-1,-6.0372213E-3,-5.6844326E-3,-6.3086976E-3,1.5499044E-3,-6.280995E-3,-6.0506123E-3,-9.367699E-3,-6.962722E-3,-1.2785939E-3,-6.149E-3,-6.3474104E-3,-1.2369928E-2,-2.182524E-3,4.657132E-2,-9.084764E-3,1.2972029E-3,1.9331692E-1,5.6892343E-2,8.842116E-3,5.3044083E-3,-1.2015515E-2,1.2025665E-2,1.3267384E-1,8.111928E-3,3.0431721E-2,-3.4753144E-2,-1.1256836E-2,1.8028717E-2,7.941361E-3,-1.588903E-2,-8.459571E-3,3.4557845E-2,4.112041E-2,-1.5573324E-1,-2.9037882E-2,1.0501154E-3,-1.5671942E-2,-6.2831524E-3,6.606284E-2,-2.9966844E-2,2.1990985E-2,-9.493671E-3,-6.2596384E-3,-1.729311E-2,4.3810174E-2,3.616067E-3,4.187031E-3,-3.0403651E-2,1.0675417E-4,8.0446854E-2,1.4158547E-2,7.667786E-3,-1.8296938E-2,-4.8082694E-3],"categories":[],"categories_nodes":[],"categories_segments":[],"categories_sizes":[],"default_left":[0,0,0,0,0,0,0,0,0,0,0,0,0,0,0,0,0,0,0,0,0,0,0,0,0,0,0,0,0,0,0,0,0,0,0,0,0,0,0,0,0,0,0,0,0,0,0,0,0,0,0,0,0,0,0,0,0,0,0,0,0,0,0,0,0,0,0,0,0,0,0,0,0,0,0,0,0,0,0,0,0,0,0,0,0,0,0,0,0,0,0,0,0,0,0,0,0,0,0,0,0,0,0,0,0,0,0,0,0,0,0,0,0,0,0,0,0,0,0,0,0,0,0,0,0],"id":9,"left_children":[1,3,5,7,9,11,13,15,17,19,21,23,25,27,29,31,33,35,37,39,41,43,45,47,49,51,53,55,57,59,61,63,65,67,69,71,73,75,77,79,81,83,85,87,89,91,93,95,97,99,101,103,105,107,109,111,113,115,117,119,121,123,-1,-1,-1,-1,-1,-1,-1,-1,-1,-1,-1,-1,-1,-1,-1,-1,-1,-1,-1,-1,-1,-1,-1,-1,-1,-1,-1,-1,-1,-1,-1,-1,-1,-1,-1,-1,-1,-1,-1,-1,-1,-1,-1,-1,-1,-1,-1,-1,-1,-1,-1,-1,-1,-1,-1,-1,-1,-1,-1,-1,-1,-1,-1],"loss_changes":[1.814209E0,2.4420166E-1,1.6791711E0,8.850098E-2,2.5040464E0,1.1863949E0,2.4204507E0,5.063715E-1,7.0495605E-2,1.327095E-1,8.7789667E-1,1.0107825E0,3.9212942E-1,2.1799612E0,2.2249088E0,3.1153679E-2,7.4021554E-1,7.897949E-2,1.8663025E-1,5.949211E-2,1.0429585E0,6.549634E0,9.381229E-1,3.2293198E0,9.391005E-1,1.3179557E0,1.0146484E0,1.2969745E0,2.9037433E0,4.4900665E0,1.07414186E-1,8.281708E-3,2.7103274E0,5.6180143E-1,5.6685414E0,1.3162231E-1,7.131424E-1,1.1108398E-2,1.1000919E-1,2.6909208E-1,2.574277E-1,3.0368905E0,4.0854824E-1,3.462472E-1,3.341943E-2,1.2992035E0,1.3556011E0,1.3043902E0,1.0066745E0,2.8850667E0,4.971677E0,1.1949178E0,2.5403333E-1,6.1997294E-2,1.503697E0,2.6297364E0,6.267898E-1,1.5321584E0,3.8119066E-1,2.6381083E0,6.636286E-2,5.104977E-2,0E0,0E0,0E0,0E0,0E0,0E0,0E0,0E0,0E0,0E0,0E0,0E0,0E0,0E0,0E0,0E0,0E0,0E0,0E0,0E0,0E0,0E0,0E0,0E0,0E0,0E0,0E0,0E0,0E0,0E0,0E0,0E0,0E0,0E0,0E0,0E0,0E0,0E0,0E0,0E0,0E0,0E0,0E0,0E0,0E0,0E0,0E0,0E0,0E0,0E0,0E0,0E0,0E0,0E0,0E0,0E0,0E0,0E0,0E0,0E0,0E0,0E0,0E0],"parents":[2147483647,0,0,1,1,2,2,3,3,4,4,5,5,6,6,7,7,8,8,9,9,10,10,11,11,12,12,13,13,14,14,15,15,16,16,17,17,18,18,19,19,20,20,21,21,22,22,23,23,24,24,25,25,26,26,27,27,28,28,29,29,30,30,31,31,32,32,33,33,34,34,35,35,36,36,37,37,38,38,39,39,40,40,41,41,42,42,43,43,44,44,45,45,46,46,47,47,48,48,49,49,50,50,51,51,52,52,53,53,54,54,55,55,56,56,57,57,58,58,59,59,60,60,61,61],"right_children":[2,4,6,8,10,12,14,16,18,20,22,24,26,28,30,32,34,36,38,40,42,44,46,48,50,52,54,56,58,60,62,64,66,68,70,72,74,76,78,80,82,84,86,88,90,92,94,96,98,100,102,104,106,108,110,112,114,116,118,120,122,124,-1,-1,-1,-1,-1,-1,-1,-1,-1,-1,-1,-1,-1,-1,-1,-1,-1,-1,-1,-1,-1,-1,-1,-1,-1,-1,-1,-1,-1,-1,-1,-1,-1,-1,-1,-1,-1,-1,-1,-1,-1,-1,-1,-1,-1,-1,-1,-1,-1,-1,-1,-1,-1,-1,-1,-1,-1,-1,-1,-1,-1,-1,-1],"split_conditions":[6.2625E2,2.3883E2,1.8E1,4.26E2,1E0,5.6299E4,5.2E1,2.2E1,1E0,2.2E1,1E0,3.7E1,5.3E1,4.6858E4,1E0,1E0,5.5E1,1E0,2.2E1,5.3E1,4.929E3,2.6161E2,5.3E1,1.2E1,1.2E1,4E0,1.4E1,2.258E3,8.3248E4,2.2E1,3.1472E4,4E0,1.142E1,2.47E3,1E0,2.2E1,2.0719E2,2.47E1,2.769E3,4E0,1E0,1E0,6.5312E4,1E1,5.3E1,2.9497E2,2.6161E2,3.5874E4,3.4831E4,5.2E1,5.3E1,1E0,1E0,1E0,1E0,1E0,1E0,1E0,2.401E3,5.3E1,1.2222E4,1.6793E4,-2.8534023E-2,-5.5592684E-3,-6.0986425E-3,1.4376843E-1,-6.1452743E-3,3.0268004E-4,-7.3401635E-3,2.4467213E-3,1.8340209E-1,-6.0372213E-3,-5.6844326E-3,-6.3086976E-3,1.5499044E-3,-6.280995E-3,-6.0506123E-3,-9.367699E-3,-6.962722E-3,-1.2785939E-3,-6.149E-3,-6.3474104E-3,-1.2369928E-2,-2.182524E-3,4.657132E-2,-9.084764E-3,1.2972029E-3,1.9331692E-1,5.6892343E-2,8.842116E-3,5.3044083E-3,-1.2015515E-2,1.2025665E-2,1.3267384E-1,8.111928E-3,3.0431721E-2,-3.4753144E-2,-1.1256836E-2,1.8028717E-2,7.941361E-3,-1.588903E-2,-8.459571E-3,3.4557845E-2,4.112041E-2,-1.5573324E-1,-2.9037882E-2,1.0501154E-3,-1.5671942E-2,-6.2831524E-3,6.606284E-2,-2.9966844E-2,2.1990985E-2,-9.493671E-3,-6.2596384E-3,-1.729311E-2,4.3810174E-2,3.616067E-3,4.187031E-3,-3.0403651E-2,1.0675417E-4,8.0446854E-2,1.4158547E-2,7.667786E-3,-1.8296938E-2,-4.8082694E-3],"split_indices":[0,0,24,4,7,4,3,24,12,24,22,3,3,4,19,18,3,8,24,3,4,0,3,24,24,24,24,2,4,24,4,24,0,2,16,24,0,0,4,24,12,8,4,24,3,0,0,4,4,3,3,16,19,16,19,22,9,22,2,3,1,4,0,0,0,0,0,0,0,0,0,0,0,0,0,0,0,0,0,0,0,0,0,0,0,0,0,0,0,0,0,0,0,0,0,0,0,0,0,0,0,0,0,0,0,0,0,0,0,0,0,0,0,0,0,0,0,0,0,0,0,0,0,0,0],"split_type":[0,0,0,0,0,0,0,0,0,0,0,0,0,0,0,0,0,0,0,0,0,0,0,0,0,0,0,0,0,0,0,0,0,0,0,0,0,0,0,0,0,0,0,0,0,0,0,0,0,0,0,0,0,0,0,0,0,0,0,0,0,0,0,0,0,0,0,0,0,0,0,0,0,0,0,0,0,0,0,0,0,0,0,0,0,0,0,0,0,0,0,0,0,0,0,0,0,0,0,0,0,0,0,0,0,0,0,0,0,0,0,0,0,0,0,0,0,0,0,0,0,0,0,0,0],"sum_hessian":[1.481915E6,1.470323E6,1.1592E4,1.435607E6,3.4716E4,6.242E3,5.35E3,3.3982E4,1.401625E6,3.218E4,2.536E3,5.251E3,9.91E2,3.429E3,1.921E3,2.9824E4,4.158E3,1.299845E6,1.0178E5,2.8286E4,3.894E3,1E3,1.536E3,1.242E3,4.009E3,4.44E2,5.47E2,2.918E3,5.11E2,1.724E3,1.97E2,2.8994E4,8.3E2,3.548E3,6.1E2,1.164221E6,1.35624E5,8.7733E4,1.4047E4,1.9361E4,8.925E3,1.186E3,2.708E3,2E1,9.8E2,1.046E3,4.9E2,4.04E2,8.38E2,2.413E3,1.596E3,4.2E1,4.02E2,4.88E2,5.9E1,1.015E3,1.903E3,3.67E2,1.44E2,1.82E2,1.542E3,1.18E2,7.9E1,2.996E3,2.5998E4,1E1,8.2E2,1.497E3,2.051E3,5.95E2,1.5E1,1.05928E6,1.04941E5,1.34577E5,1.047E3,2.9378E4,5.8355E4,2.007E3,1.204E4,1.082E3,1.8279E4,8.232E3,6.93E2,1.058E3,1.28E2,2.308E3,4E2,1.7E1,3E0,5.22E2,4.58E2,7.73E2,2.73E2,7E0,4.83E2,3.75E2,2.9E1,7.15E2,1.23E2,6.12E2,1.801E3,1.3E3,2.96E2,4E1,2E0,3.75E2,2.7E1,4.11E2,7.7E1,3.5E1,2.4E1,3.82E2,6.33E2,1.102E3,8.01E2,2.32E2,1.35E2,3.9E1,1.05E2,5.1E1,1.31E2,1.59E2,1.383E3,8E1,3.8E1],"tree_param":{"num_deleted":"0","num_feature":"26","num_nodes":"125","size_leaf_vector":"0"}},{"base_weights":[-1.3975084E-2,-1.4043821E-2,-5.2561266E-3,-1.408849E-2,-1.2196242E-2,-2.5992603E-3,-4.3500256E-2,-1.4830577E-2,-1.4014149E-2,-1.3876815E-2,9.126072E-3,-1.0818094E-2,7.158746E-3,-1.8533798E-2,-6.821954E-2,-1.44502185E-2,-2.2060119E-2,-1.4075158E-2,-1.2322144E-2,-1.4501509E-2,-6.646066E-3,2.5360655E-2,-1.4529418E-3,-6.2877582E-3,-3.455365E-2,-6.017557E-3,3.184966E-2,-4.9226217E-2,-6.9284947E-3,-8.963167E-2,-4.744911E-2,-1.4018296E-2,-1.7137008E-2,-4.918525E-2,-1.5457915E-2,-1.38794435E-2,-1.4358604E-2,3.7609962E-1,-1.3979298E-2,-1.8280396E-2,-1.4036066E-2,5.8657754E-2,-1.2534476E-2,4.23834E-1,1.6804792E-2,7.946162E-2,-7.807064E-3,4.2329524E-2,-9.050885E-3,-5.5542745E-2,-1.7299475E-2,1.318878E-2,-2.5823327E-2,1.3590786E-1,1.9487701E-2,-1.5087393E-1,-3.907826E-2,-2.1340357E-2,9.436315E-3,-7.639214E-2,-1.046412E-1,-3.3795614E-2,-6.775642E-2,-4.2058174E-3,8.903265E-3,-5.310269E-3,-1.2577084E-3,-3.850384E-3,-1.6516734E-2,-6.709399E-3,-4.2860117E-3,-4.293149E-3,-4.069428E-3,-4.340948E-3,-3.6611157E-3,1.7617074E-1,2.676166E-2,4.1567888E-2,-4.342906E-3,1.4563687E-1,-5.575598E-3,-3.965559E-3,-5.0787292E-3,1.7143194E-1,-1.9174863E-2,-6.849712E-3,5.1616384E-3,1.3854378E-1,4.4091567E-2,4.137782E-3,7.4674003E-3,1.9688444E-1,1.8902339E-2,-7.3433653E-3,7.1965945E-3,4.200976E-2,-2.0279349E-3,-1.455339E-3,-7.593341E-3,8.525594E-3,-2.2438576E-2,-1.0715926E-2,5.186566E-2,1.6766382E-2,-6.416848E-3,2.0538574E-2,-9.139404E-3,7.534403E-5,5.649564E-2,4.7805915E-3,9.42542E-3,1.9280226E-3,-5.902053E-2,-2.0313658E-2,-6.373981E-3,-3.675937E-3,-1.7759686E-2,-3.2848425E-2,3.9411043E-3,-2.6304029E-2,-1.8869717E-2,-3.6230173E-2,-2.7718512E-2,-1.3277462E-2,-4.1428627E-3,-1.1677477E-2,-2.0893397E-2],"categories":[],"categories_nodes":[],"categories_segments":[],"categories_sizes":[],"default_left":[0,0,0,0,0,0,0,0,0,0,0,0,0,0,0,0,0,0,0,0,0,0,0,0,0,0,0,0,0,0,0,0,0,0,0,0,0,0,0,0,0,0,0,0,0,0,0,0,0,0,0,0,0,0,0,0,0,0,0,0,0,0,0,0,0,0,0,0,0,0,0,0,0,0,0,0,0,0,0,0,0,0,0,0,0,0,0,0,0,0,0,0,0,0,0,0,0,0,0,0,0,0,0,0,0,0,0,0,0,0,0,0,0,0,0,0,0,0,0,0,0,0,0,0,0,0,0],"id":10,"left_children":[1,3,5,7,9,11,13,15,17,19,21,23,25,27,29,31,33,35,37,39,41,43,45,47,49,51,53,55,57,59,61,63,65,67,69,71,73,75,77,79,81,83,85,87,89,91,93,95,97,99,101,103,105,107,109,111,113,115,117,119,121,123,125,-1,-1,-1,-1,-1,-1,-1,-1,-1,-1,-1,-1,-1,-1,-1,-1,-1,-1,-1,-1,-1,-1,-1,-1,-1,-1,-1,-1,-1,-1,-1,-1,-1,-1,-1,-1,-1,-1,-1,-1,-1,-1,-1,-1,-1,-1,-1,-1,-1,-1,-1,-1,-1,-1,-1,-1,-1,-1,-1,-1,-1,-1,-1,-1],"loss_changes":[8.88031E-1,1.211853E-1,1.1778463E0,7.901001E-2,1.2441659E0,8.695195E-1,4.6345186E-1,3.5909653E-1,1.3452148E-1,1.4526558E-1,4.3575612E-1,6.32597E-1,1.6128771E0,1.3358822E-1,1.6385853E-1,1.4386559E-1,1.1688483E0,6.968689E-2,2.9242252E1,5.184269E-2,9.855311E-1,3.4055696E0,7.908551E-1,6.6440475E-1,3.4054625E-1,1.2301619E0,2.2163277E0,1.0035032E-1,6.482356E-2,2.8769374E-2,5.1499695E-2,5.531311E-3,1.2542295E-1,2.7201533E-1,4.218149E-2,1.00875854E-1,1.2312317E-1,1.1638342E1,3.4313574E0,5.0746846E-1,6.21624E-2,1.3361513E1,7.20101E-1,1.5293813E-1,2.355206E-2,1.0216291E0,7.564536E-1,1.2767285E0,3.193336E-1,6.891242E-1,1.8243673E0,2.4255478E0,6.9876206E-1,1.3010633E0,6.48939E-2,6.61903E-2,4.7067434E-2,4.9503013E-2,5.8214936E-2,1.0020554E-2,5.430162E-3,2.4063319E-2,1.4809966E-3,0E0,0E0,0E0,0E0,0E0,0E0,0E0,0E0,0E0,0E0,0E0,0E0,0E0,0E0,0E0,0E0,0E0,0E0,0E0,0E0,0E0,0E0,0E0,0E0,0E0,0E0,0E0,0E0,0E0,0E0,0E0,0E0,0E0,0E0,0E0,0E0,0E0,0E0,0E0,0E0,0E0,0E0,0E0,0E0,0E0,0E0,0E0,0E0,0E0,0E0,0E0,0E0,0E0,0E0,0E0,0E0,0E0,0E0,0E0,0E0,0E0,0E0,0E0,0E0],"parents":[2147483647,0,0,1,1,2,2,3,3,4,4,5,5,6,6,7,7,8,8,9,9,10,10,11,11,12,12,13,13,14,14,15,15,16,16,17,17,18,18,19,19,20,20,21,21,22,22,23,23,24,24,25,25,26,26,27,27,28,28,29,29,30,30,31,31,32,32,33,33,34,34,35,35,36,36,37,37,38,38,39,39,40,40,41,41,42,42,43,43,44,44,45,45,46,46,47,47,48,48,49,49,50,50,51,51,52,52,53,53,54,54,55,55,56,56,57,57,58,58,59,59,60,60,61,61,62,62],"right_children":[2,4,6,8,10,12,14,16,18,20,22,24,26,28,30,32,34,36,38,40,42,44,46,48,50,52,54,56,58,60,62,64,66,68,70,72,74,76,78,80,82,84,86,88,90,92,94,96,98,100,102,104,106,108,110,112,114,116,118,120,122,124,126,-1,-1,-1,-1,-1,-1,-1,-1,-1,-1,-1,-1,-1,-1,-1,-1,-1,-1,-1,-1,-1,-1,-1,-1,-1,-1,-1,-1,-1,-1,-1,-1,-1,-1,-1,-1,-1,-1,-1,-1,-1,-1,-1,-1,-1,-1,-1,-1,-1,-1,-1,-1,-1,-1,-1,-1,-1,-1,-1,-1,-1,-1,-1,-1],"split_conditions":[6.2625E2,2.3883E2,1E0,2.8E1,1E0,1.8E1,5.3E1,1E0,1E0,1E0,1E0,5.5328E4,5.2E1,1.725E3,1.8E1,2.2E1,1.77E1,5.3E1,1.36E1,4E0,4E0,2.6161E2,2.8E1,2.8E1,5.3E1,5.666E3,2.2E1,2.8E1,1E0,2.807E3,3.3821E4,9.916E4,1E0,4.503E3,2.339E1,1E0,1E0,4E0,1.591E1,2.2E1,5.5E1,5.3E1,5.4E1,1E1,1.5898E4,2.6161E2,5.3E1,1.3E1,1E0,1.2E1,1.2E1,1E0,3.53E2,5.3E1,1E0,2E0,1E0,2.2E1,2.2E1,1.6119E4,1.5898E4,1.6793E4,2.18E2,-4.2058174E-3,8.903265E-3,-5.310269E-3,-1.2577084E-3,-3.850384E-3,-1.6516734E-2,-6.709399E-3,-4.2860117E-3,-4.293149E-3,-4.069428E-3,-4.340948E-3,-3.6611157E-3,1.7617074E-1,2.676166E-2,4.1567888E-2,-4.342906E-3,1.4563687E-1,-5.575598E-3,-3.965559E-3,-5.0787292E-3,1.7143194E-1,-1.9174863E-2,-6.849712E-3,5.1616384E-3,1.3854378E-1,4.4091567E-2,4.137782E-3,7.4674003E-3,1.9688444E-1,1.8902339E-2,-7.3433653E-3,7.1965945E-3,4.200976E-2,-2.0279349E-3,-1.455339E-3,-7.593341E-3,8.525594E-3,-2.2438576E-2,-1.0715926E-2,5.186566E-2,1.6766382E-2,-6.416848E-3,2.0538574E-2,-9.139404E-3,7.534403E-5,5.649564E-2,4.7805915E-3,9.42542E-3,1.9280226E-3,-5.902053E-2,-2.0313658E-2,-6.373981E-3,-3.675937E-3,-1.7759686E-2,-3.2848425E-2,3.9411043E-3,-2.6304029E-2,-1.8869717E-2,-3.6230173E-2,-2.7718512E-2,-1.3277462E-2,-4.1428627E-3,-1.1677477E-2,-2.0893397E-2],"split_indices":[0,0,19,3,7,24,3,18,18,12,22,4,3,2,24,24,0,3,0,24,24,0,3,3,3,2,24,3,22,2,4,1,19,4,0,22,16,24,0,3,3,3,3,24,4,0,3,24,17,24,24,22,4,3,9,25,22,24,3,4,4,4,2,0,0,0,0,0,0,0,0,0,0,0,0,0,0,0,0,0,0,0,0,0,0,0,0,0,0,0,0,0,0,0,0,0,0,0,0,0,0,0,0,0,0,0,0,0,0,0,0,0,0,0,0,0,0,0,0,0,0,0,0,0,0,0,0],"split_type":[0,0,0,0,0,0,0,0,0,0,0,0,0,0,0,0,0,0,0,0,0,0,0,0,0,0,0,0,0,0,0,0,0,0,0,0,0,0,0,0,0,0,0,0,0,0,0,0,0,0,0,0,0,0,0,0,0,0,0,0,0,0,0,0,0,0,0,0,0,0,0,0,0,0,0,0,0,0,0,0,0,0,0,0,0,0,0,0,0,0,0,0,0,0,0,0,0,0,0,0,0,0,0,0,0,0,0,0,0,0,0,0,0,0,0,0,0,0,0,0,0,0,0,0,0,0,0],"sum_hessian":[1.481915E6,1.470323E6,1.1592E4,1.435607E6,3.4716E4,1.084E4,7.52E2,1.30704E5,1.304903E6,3.218E4,2.536E3,5.884E3,4.956E3,3.75E2,3.77E2,1.24174E5,6.53E3,1.259482E6,4.5421E4,2.962E4,2.56E3,1E3,1.536E3,4.942E3,9.42E2,3.232E3,1.724E3,1.02E2,2.73E2,1.84E2,1.93E2,1.06982E5,1.7192E4,1.277E3,5.253E3,7.45073E5,5.14409E5,1.92E2,4.5229E4,3.244E3,2.6376E4,2.11E2,2.349E3,2E1,9.8E2,1.11E2,1.425E3,2.65E2,4.677E3,4.24E2,5.18E2,1.641E3,1.591E3,1.82E2,1.542E3,8E0,9.4E1,1.45E2,1.28E2,1.01E2,8.3E1,1.17E2,7.6E1,1.0698E5,2E0,1.6474E4,7.18E2,1.78E2,1.099E3,7.59E2,4.494E3,3.14386E5,4.30687E5,4.89156E5,2.5253E4,1.1E2,8.2E1,1.46E2,4.5083E4,1E0,3.243E3,2.0569E4,5.807E3,4E1,1.71E2,1.745E3,6.04E2,1.7E1,3E0,7.16E2,2.64E2,2E0,1.09E2,9.35E2,4.9E2,8.8E1,1.77E2,3.718E3,9.59E2,7.9E1,3.45E2,4.73E2,4.5E1,7.34E2,9.07E2,7.4E1,1.517E3,5.1E1,1.31E2,1.19E3,3.52E2,2E0,6E0,3.5E1,5.9E1,1.18E2,2.7E1,3E0,1.25E2,5.2E1,4.9E1,3.2E1,5.1E1,7.6E1,4.1E1,6E0,7E1],"tree_param":{"num_deleted":"0","num_feature":"26","num_nodes":"127","size_leaf_vector":"0"}},{"base_weights":[-9.78206E-3,-9.830074E-3,-3.6915834E-3,-9.765325E-3,-1.0683057E-2,-1.805581E-3,-3.0839603E-2,-9.852836E-3,-8.359032E-3,-1.004816E-2,-1.716272E-2,7.824655E-3,-8.181663E-3,-1.3330368E-2,-4.8174612E-2,-8.969787E-3,-9.907323E-3,-9.803636E-3,8.261646E-3,-9.979212E-3,-1.1003096E-2,-1.6590199E-2,-3.7718568E-2,8.6064555E-2,1.8162514E-3,-1.700679E-2,1.1627376E-2,-3.9993383E-2,-4.300877E-3,-6.333202E-2,-3.347206E-2,-9.896868E-3,-2.6111726E-3,-9.920084E-3,-6.657242E-3,-9.894288E-3,-8.025721E-3,2.8555691E-2,-4.9075754E-3,-9.963384E-3,-1.3588636E-2,-1.0600633E-2,-1.4054965E-2,-1.871771E-2,-1.5037212E-2,-2.6494885E-2,-1.8090744E-1,3.837454E-1,7.478753E-2,-1.5300951E-2,1.3743242E-2,-1.2396862E-2,-7.391226E-2,-2.1220967E-2,4.3435823E-2,-3.517914E-2,-3.707075E-2,3.5805085E-3,-3.6171835E-2,-5.192201E-2,-7.271928E-2,-2.5542933E-2,-5.208167E-2,-2.1017636E-3,-3.075512E-3,-2.1077844E-3,4.2592525E-3,-2.9559894E-3,-3.1508675E-3,-2.4580997E-3,1.6405473E-2,-2.9715402E-3,1.0810231E-3,-2.5689318E-3,1.0030191E-2,-6.3805666E-4,4.72889E-2,-3.0963598E-3,2.0277902E-2,-3.070358E-3,-2.9469468E-3,-3.0099559E-3,-4.7948252E-2,-3.2284474E-3,7.319333E-3,-4.2955955E-3,-3.0436637E-3,-5.132721E-3,-9.044471E-3,-5.2286913E-3,-3.822659E-3,-8.392935E-3,-2.17326E-3,2.9936044E-2,-6.666928E-2,1.9525601E-1,1.5803967E-2,3.3398356E-2,1.1100364E-2,2.2325289E-2,-1.3036617E-2,2.1236992E-2,-4.5073773E-3,1.1032928E-2,-6.491341E-3,-1.945387E-1,-1.3566825E-2,-8.399163E-3,1.5562249E-3,5.2177206E-2,4.7129192E-3,-1.4096013E-2,-5.285368E-3,5.420976E-5,1.0118245E-2,-3.1481273E-2,5.929346E-4,-1.8751472E-2,-1.1188264E-2,-2.5484566E-2,-1.8896535E-2,-4.892257E-3,-1.1400079E-2,-1.2713969E-2,-1.7820183E-2],"categories":[],"categories_nodes":[],"categories_segments":[],"categories_sizes":[],"default_left":[0,0,0,0,0,0,0,0,0,0,0,0,0,0,0,0,0,0,0,0,0,0,0,0,0,0,0,0,0,0,0,0,0,0,0,0,0,0,0,0,0,0,0,0,0,0,0,0,0,0,0,0,0,0,0,0,0,0,0,0,0,0,0,0,0,0,0,0,0,0,0,0,0,0,0,0,0,0,0,0,0,0,0,0,0,0,0,0,0,0,0,0,0,0,0,0,0,0,0,0,0,0,0,0,0,0,0,0,0,0,0,0,0,0,0,0,0,0,0,0,0,0,0,0,0],"id":11,"left_children":[1,3,5,7,9,11,13,15,17,19,21,23,25,27,29,31,33,35,37,39,41,43,45,47,49,51,53,55,57,59,61,63,65,67,69,71,73,75,77,79,81,83,85,87,89,91,93,95,97,99,101,103,105,107,109,-1,111,113,115,117,119,121,123,-1,-1,-1,-1,-1,-1,-1,-1,-1,-1,-1,-1,-1,-1,-1,-1,-1,-1,-1,-1,-1,-1,-1,-1,-1,-1,-1,-1,-1,-1,-1,-1,-1,-1,-1,-1,-1,-1,-1,-1,-1,-1,-1,-1,-1,-1,-1,-1,-1,-1,-1,-1,-1,-1,-1,-1,-1,-1,-1,-1,-1,-1],"loss_changes":[4.333191E-1,8.1100464E-2,5.935202E-1,1.6810608E-1,4.26548E-1,6.6573584E-1,2.2791052E-1,6.1813354E-2,1.9224653E0,6.111145E-3,1.08293295E-1,2.0301921E0,1.140531E0,9.035128E-2,8.211845E-2,4.4080448E-1,5.0193787E-2,1.179266E-2,1.7113853E0,4.8980713E-3,7.652998E-3,2.9474497E-2,3.969836E-1,1.0052426E0,8.19287E-1,1.1829796E0,2.1021245E0,1.710707E-2,7.096434E-2,1.6039371E-2,2.7295932E-2,6.6878796E-2,7.063233E-1,4.6875E-2,4.4736987E-1,1.0294437E-2,8.002582E-2,9.980335E0,1.5251323E0,3.2348633E-3,1.970154E-1,3.1879365E-2,6.144643E-4,6.9283605E-2,2.8381824E-2,6.4427555E-3,2.3096234E-1,9.384457E-1,4.073366E-1,4.1660423E0,3.8822908E0,1.8984008E0,5.542118E0,1.773054E-1,3.69479E0,0E0,1.7111331E-2,2.3260035E-2,1.4711192E-1,1.1136919E-2,6.430328E-3,1.5257016E-2,1.5300065E-3,0E0,0E0,0E0,0E0,0E0,0E0,0E0,0E0,0E0,0E0,0E0,0E0,0E0,0E0,0E0,0E0,0E0,0E0,0E0,0E0,0E0,0E0,0E0,0E0,0E0,0E0,0E0,0E0,0E0,0E0,0E0,0E0,0E0,0E0,0E0,0E0,0E0,0E0,0E0,0E0,0E0,0E0,0E0,0E0,0E0,0E0,0E0,0E0,0E0,0E0,0E0,0E0,0E0,0E0,0E0,0E0,0E0,0E0,0E0,0E0,0E0,0E0],"parents":[2147483647,0,0,1,1,2,2,3,3,4,4,5,5,6,6,7,7,8,8,9,9,10,10,11,11,12,12,13,13,14,14,15,15,16,16,17,17,18,18,19,19,20,20,21,21,22,22,23,23,24,24,25,25,26,26,27,27,28,28,29,29,30,30,31,31,32,32,33,33,34,34,35,35,36,36,37,37,38,38,39,39,40,40,41,41,42,42,43,43,44,44,45,45,46,46,47,47,48,48,49,49,50,50,51,51,52,52,53,53,54,54,56,56,57,57,58,58,59,59,60,60,61,61,62,62],"right_children":[2,4,6,8,10,12,14,16,18,20,22,24,26,28,30,32,34,36,38,40,42,44,46,48,50,52,54,56,58,60,62,64,66,68,70,72,74,76,78,80,82,84,86,88,90,92,94,96,98,100,102,104,106,108,110,-1,112,114,116,118,120,122,124,-1,-1,-1,-1,-1,-1,-1,-1,-1,-1,-1,-1,-1,-1,-1,-1,-1,-1,-1,-1,-1,-1,-1,-1,-1,-1,-1,-1,-1,-1,-1,-1,-1,-1,-1,-1,-1,-1,-1,-1,-1,-1,-1,-1,-1,-1,-1,-1,-1,-1,-1,-1,-1,-1,-1,-1,-1,-1,-1,-1,-1,-1],"split_conditions":[6.2625E2,9.0375E4,1E0,6.5312E4,2.2E1,2.47E3,5.3E1,9.45E2,2.2E1,1E0,2.2503E2,3.1E1,5.3E1,9.2059E2,1.8E1,2.2E1,5.0058E2,2.1E1,2.339E1,5.0058E2,1.1305E2,2.537E1,1E0,5.733E3,1.2E1,1E0,1.2E1,2.81E2,2.2E1,1.97E3,4.6858E4,4E0,5.1E1,2.2E1,1E0,9.7E1,9.8027E4,1.649E1,2.0719E2,2.339E1,1E0,1.1139E2,2.3883E2,1.955E1,2.3E1,6.070978E3,2.3392188E3,2E1,1E0,5.2E1,1E0,1.2E1,4E0,1E0,2.2E1,-3.517914E-2,1E0,7.2354E4,4.603E3,1E0,1.5898E4,2.368E3,3.833E3,-2.1017636E-3,-3.075512E-3,-2.1077844E-3,4.2592525E-3,-2.9559894E-3,-3.1508675E-3,-2.4580997E-3,1.6405473E-2,-2.9715402E-3,1.0810231E-3,-2.5689318E-3,1.0030191E-2,-6.3805666E-4,4.72889E-2,-3.0963598E-3,2.0277902E-2,-3.070358E-3,-2.9469468E-3,-3.0099559E-3,-4.7948252E-2,-3.2284474E-3,7.319333E-3,-4.2955955E-3,-3.0436637E-3,-5.132721E-3,-9.044471E-3,-5.2286913E-3,-3.822659E-3,-8.392935E-3,-2.17326E-3,2.9936044E-2,-6.666928E-2,1.9525601E-1,1.5803967E-2,3.3398356E-2,1.1100364E-2,2.2325289E-2,-1.3036617E-2,2.1236992E-2,-4.5073773E-3,1.1032928E-2,-6.491341E-3,-1.945387E-1,-1.3566825E-2,-8.399163E-3,1.5562249E-3,5.2177206E-2,4.7129192E-3,-1.4096013E-2,-5.285368E-3,5.420976E-5,1.0118245E-2,-3.1481273E-2,5.929346E-4,-1.8751472E-2,-1.1188264E-2,-2.5484566E-2,-1.8896535E-2,-4.892257E-3,-1.1400079E-2,-1.2713969E-2,-1.7820183E-2],"split_indices":[0,4,19,4,24,2,3,4,24,13,0,3,3,0,24,24,0,24,0,0,0,0,8,1,24,16,24,4,24,2,4,24,3,24,12,3,1,0,0,0,12,0,0,0,24,5,5,24,11,3,22,24,24,16,24,0,22,4,2,22,4,2,2,0,0,0,0,0,0,0,0,0,0,0,0,0,0,0,0,0,0,0,0,0,0,0,0,0,0,0,0,0,0,0,0,0,0,0,0,0,0,0,0,0,0,0,0,0,0,0,0,0,0,0,0,0,0,0,0,0,0,0,0,0,0],"split_type":[0,0,0,0,0,0,0,0,0,0,0,0,0,0,0,0,0,0,0,0,0,0,0,0,0,0,0,0,0,0,0,0,0,0,0,0,0,0,0,0,0,0,0,0,0,0,0,0,0,0,0,0,0,0,0,0,0,0,0,0,0,0,0,0,0,0,0,0,0,0,0,0,0,0,0,0,0,0,0,0,0,0,0,0,0,0,0,0,0,0,0,0,0,0,0,0,0,0,0,0,0,0,0,0,0,0,0,0,0,0,0,0,0,0,0,0,0,0,0,0,0,0,0,0,0],"sum_hessian":[1.481915E6,1.470323E6,1.1592E4,1.366598E6,1.03725E5,1.084E4,7.52E2,1.286534E6,8.0064E4,9.4471E4,9.254E3,4.318E3,6.522E3,3.75E2,3.77E2,7.478E4,1.211754E6,7.3662E4,6.402E3,8.812E4,6.351E3,9.005E3,2.49E2,3.07E2,4.011E3,4.512E3,2.01E3,9.4E1,2.81E2,1.84E2,1.93E2,6.5264E4,9.516E3,1.207013E6,4.741E3,7.0084E4,3.578E3,2.519E3,3.883E3,8.7739E4,3.81E2,5.615E3,7.36E2,3.795E3,5.21E3,2.32E2,1.7E1,1E1,2.97E2,1.647E3,2.364E3,4.175E3,3.37E2,9.89E2,1.021E3,2E0,9.2E1,2.26E2,5.5E1,8.6E1,9.8E1,1.37E2,5.6E1,7.137E3,5.8127E4,7.537E3,1.979E3,1.082934E6,1.24079E5,4.626E3,1.15E2,7.0028E4,5.6E1,3.533E3,4.5E1,2.036E3,4.83E2,3.614E3,2.69E2,2.9884E4,5.7855E4,3.73E2,8E0,5.59E3,2.5E1,6.87E2,4.9E1,3.329E3,4.66E2,2.548E3,2.662E3,2.15E2,1.7E1,2E0,1.5E1,5E0,5E0,1.5E2,1.47E2,3.93E2,1.254E3,7.92E2,1.572E3,6.6E2,3.515E3,1.5E1,3.22E2,7.87E2,2.02E2,1.78E2,8.43E2,6E1,3.2E1,2.04E2,2.2E1,1.9E1,3.6E1,4.8E1,3.8E1,4E1,5.8E1,8E1,5.7E1,2.7E1,2.9E1],"tree_param":{"num_deleted":"0","num_feature":"26","num_nodes":"125","size_leaf_vector":"0"}},{"base_weights":[-6.847526E-3,-6.8810903E-3,-2.5900062E-3,-6.8142954E-3,-7.5724665E-3,-1.4288782E-2,8.2715815E-5,-6.3483906E-3,-6.925109E-3,-7.1619884E-3,-1.1268658E-2,-1.2296637E-2,-7.017189E-2,2.5757309E-2,-2.1719947E-3,-6.8128784E-3,7.215823E-4,-6.8542343E-3,-8.307754E-3,-8.383415E-3,-6.9552995E-3,-1.1335892E-2,1.2884998E-1,-1.6714761E-2,9.702622E-3,-4.8533943E-2,-3.0731305E-1,9.81488E-3,7.507465E-2,5.427124E-3,-7.801157E-3,-4.365069E-3,-7.1182973E-3,-7.802736E-4,2.8854832E-2,-7.031652E-3,-6.6065276E-3,-4.273925E-3,-8.845598E-3,-9.048487E-3,-6.8717715E-3,-6.651243E-3,-7.186037E-3,-1.8760398E-2,-9.456209E-3,-6.853403E-2,-1.373807E-2,2.0816302E-1,3.2342824E-3,-8.5404076E-2,-3.3486683E-2,-1.0557374E-1,-1.2647388E-2,1.6463204E-1,1.6190463E-3,8.267512E-3,1.6157442E-1,-2.0618254E-2,1.6031727E-2,-2.039417E-2,1.2058836E-2,-1.3981675E-3,1.40498495E-2,-2.1084552E-3,-3.1510876E-3,2.3830705E-3,-2.4520445E-3,2.2649674E-3,4.512229E-2,-1.9219333E-3,-2.1427092E-3,-2.0302671E-3,-8.992606E-4,-2.3788363E-3,-6.601288E-4,-2.5697555E-3,-5.775695E-3,-3.6197451E-3,-2.5595168E-3,-2.1080612E-3,-1.6026159E-3,-2.0119646E-3,-1.961468E-3,-2.234482E-3,-2.0776454E-3,-5.4212185E-3,-9.508381E-3,-2.900093E-3,3.2319787E-3,-1.7055279E-1,-1.5445667E-2,3.13311E-2,-4.755871E-3,1.2475277E-1,9.024885E-3,7.049923E-2,-4.941983E-4,-4.4374216E-2,-4.546007E-3,6.978947E-2,-3.6977788E-3,2.8741742E-3,-3.577697E-2,2.3317894E-2,-1.9607257E-2,8.935987E-2,1.3776519E-2,1.2200283E-2,-1.0535644E-2,-3.521603E-4,1.1965801E-2,-3.1555204E-3,-2.934722E-2,-2.7979338E-3,9.175986E-3],"categories":[],"categories_nodes":[],"categories_segments":[],"categories_sizes":[],"default_left":[0,0,0,0,0,0,0,0,0,0,0,0,0,0,0,0,0,0,0,0,0,0,0,0,0,0,0,0,0,0,0,0,0,0,0,0,0,0,0,0,0,0,0,0,0,0,0,0,0,0,0,0,0,0,0,0,0,0,0,0,0,0,0,0,0,0,0,0,0,0,0,0,0,0,0,0,0,0,0,0,0,0,0,0,0,0,0,0,0,0,0,0,0,0,0,0,0,0,0,0,0,0,0,0,0,0,0,0,0,0,0,0,0,0,0],"id":12,"left_children":[1,3,5,7,9,11,13,15,17,19,21,23,25,27,29,31,33,35,37,39,41,43,-1,45,47,49,51,53,55,57,59,61,63,65,67,69,71,73,75,77,79,81,83,85,87,89,91,93,95,-1,97,-1,-1,99,101,103,105,107,109,111,113,-1,-1,-1,-1,-1,-1,-1,-1,-1,-1,-1,-1,-1,-1,-1,-1,-1,-1,-1,-1,-1,-1,-1,-1,-1,-1,-1,-1,-1,-1,-1,-1,-1,-1,-1,-1,-1,-1,-1,-1,-1,-1,-1,-1,-1,-1,-1,-1,-1,-1,-1,-1,-1,-1],"loss_changes":[2.1174622E-1,6.7848206E-2,3.6248624E-1,6.918335E-2,1.9643831E-1,2.3915875E-1,5.464102E-1,8.4607315E-1,1.06090546E-1,2.9373169E-2,3.8848543E-1,2.0262027E-1,3.6479738E-1,5.9837663E-1,3.7121552E-1,1.8070889E-1,6.711546E-1,4.5238495E-2,1.14539385E-1,1.6896248E-2,6.947994E-3,1.8046534E-1,0E0,2.6668215E-1,4.4734132E-1,2.3564845E-1,5.6118667E-2,7.318632E-1,1.0735214E0,1.0203403E0,1.2469804E0,4.0597808E-1,6.5496445E-2,9.726823E-1,2.0835528E0,4.150963E-2,2.4988174E-1,4.7090538E-2,1.3549066E-1,1.8157423E-2,1.1862516E-3,2.2518635E-4,3.821373E-3,2.2745013E-2,4.4152617E-2,7.719687E-1,4.1202495E-1,3.943097E-1,3.83924E-1,0E0,1.3621566E-1,0E0,0E0,3.51826E-1,5.294756E-1,5.4715407E-1,1.2630851E0,9.5142627E-1,1.0774176E0,2.332009E0,7.669745E-1,0E0,0E0,0E0,0E0,0E0,0E0,0E0,0E0,0E0,0E0,0E0,0E0,0E0,0E0,0E0,0E0,0E0,0E0,0E0,0E0,0E0,0E0,0E0,0E0,0E0,0E0,0E0,0E0,0E0,0E0,0E0,0E0,0E0,0E0,0E0,0E0,0E0,0E0,0E0,0E0,0E0,0E0,0E0,0E0,0E0,0E0,0E0,0E0,0E0,0E0,0E0,0E0,0E0,0E0],"parents":[2147483647,0,0,1,1,2,2,3,3,4,4,5,5,6,6,7,7,8,8,9,9,10,10,11,11,12,12,13,13,14,14,15,15,16,16,17,17,18,18,19,19,20,20,21,21,23,23,24,24,25,25,26,26,27,27,28,28,29,29,30,30,31,31,32,32,33,33,34,34,35,35,36,36,37,37,38,38,39,39,40,40,41,41,42,42,43,43,44,44,45,45,46,46,47,47,48,48,50,50,53,53,54,54,55,55,56,56,57,57,58,58,59,59,60,60],"right_children":[2,4,6,8,10,12,14,16,18,20,22,24,26,28,30,32,34,36,38,40,42,44,-1,46,48,50,52,54,56,58,60,62,64,66,68,70,72,74,76,78,80,82,84,86,88,90,92,94,96,-1,98,-1,-1,100,102,104,106,108,110,112,114,-1,-1,-1,-1,-1,-1,-1,-1,-1,-1,-1,-1,-1,-1,-1,-1,-1,-1,-1,-1,-1,-1,-1,-1,-1,-1,-1,-1,-1,-1,-1,-1,-1,-1,-1,-1,-1,-1,-1,-1,-1,-1,-1,-1,-1,-1,-1,-1,-1,-1,-1,-1,-1,-1],"split_conditions":[6.2625E2,1E0,1E0,4.195E3,2.2E1,7.5753E5,2.8E1,2.3E1,2.3E1,4E0,5.3E1,3.7545E4,1E0,3.1916E4,1E0,4E0,1.9413E2,2.8122E4,6.389E3,2.405E1,6.55E0,2.769E3,1.2884998E-1,2.6E1,2.7E1,4.454074E2,1E0,1.0697395E3,1E0,1.2E1,5.2E1,4.1972E2,2.2503E2,2.537E1,1E0,4E0,2.2E1,1.83E1,2.2503E2,4.195E3,2.6161E2,5.3E1,2.47E1,2.3883E2,5.0058E2,1.41E2,2.7E1,5.76E3,3.811E4,-8.5404076E-2,9.73849E5,-1.0557374E-1,-1.2647388E-2,1E0,2.23E4,9.2059E2,6.1667E4,5.2E1,1E0,1E0,1.2E1,-1.3981675E-3,1.40498495E-2,-2.1084552E-3,-3.1510876E-3,2.3830705E-3,-2.4520445E-3,2.2649674E-3,4.512229E-2,-1.9219333E-3,-2.1427092E-3,-2.0302671E-3,-8.992606E-4,-2.3788363E-3,-6.601288E-4,-2.5697555E-3,-5.775695E-3,-3.6197451E-3,-2.5595168E-3,-2.1080612E-3,-1.6026159E-3,-2.0119646E-3,-1.961468E-3,-2.234482E-3,-2.0776454E-3,-5.4212185E-3,-9.508381E-3,-2.900093E-3,3.2319787E-3,-1.7055279E-1,-1.5445667E-2,3.13311E-2,-4.755871E-3,1.2475277E-1,9.024885E-3,7.049923E-2,-4.941983E-4,-4.4374216E-2,-4.546007E-3,6.978947E-2,-3.6977788E-3,2.8741742E-3,-3.577697E-2,2.3317894E-2,-1.9607257E-2,8.935987E-2,1.3776519E-2,1.2200283E-2,-1.0535644E-2,-3.521603E-4,1.1965801E-2,-3.1555204E-3,-2.934722E-2,-2.7979338E-3,9.175986E-3],"split_indices":[0,9,25,4,24,2,3,24,24,24,3,4,17,4,22,24,0,4,4,0,0,4,0,3,3,5,20,5,11,24,3,0,0,0,8,24,24,0,0,4,0,3,0,0,0,4,3,2,4,0,2,0,0,20,4,0,4,3,11,17,24,0,0,0,0,0,0,0,0,0,0,0,0,0,0,0,0,0,0,0,0,0,0,0,0,0,0,0,0,0,0,0,0,0,0,0,0,0,0,0,0,0,0,0,0,0,0,0,0,0,0,0,0,0,0],"split_type":[0,0,0,0,0,0,0,0,0,0,0,0,0,0,0,0,0,0,0,0,0,0,0,0,0,0,0,0,0,0,0,0,0,0,0,0,0,0,0,0,0,0,0,0,0,0,0,0,0,0,0,0,0,0,0,0,0,0,0,0,0,0,0,0,0,0,0,0,0,0,0,0,0,0,0,0,0,0,0,0,0,0,0,0,0,0,0,0,0,0,0,0,0,0,0,0,0,0,0,0,0,0,0,0,0,0,0,0,0,0,0,0,0,0,0],"sum_hessian":[1.481915E6,1.470323E6,1.1592E4,1.340797E6,1.29526E5,2.155E3,9.437E3,2.57639E5,1.083158E6,1.16582E5,1.2944E4,2.082E3,7.3E1,7.61E2,8.676E3,2.41756E5,1.5883E4,1.030348E6,5.281E4,1.6867E4,9.9715E4,1.2943E4,1E0,1.734E3,3.48E2,6.8E1,5E0,5.76E2,1.85E2,3.692E3,4.984E3,2.682E4,2.14936E5,1.5079E4,8.04E2,6.00335E5,4.30013E5,6.214E3,4.6596E4,1.171E4,5.157E3,4.3035E4,5.668E4,2.613E3,1.033E4,9.3E1,1.641E3,1E1,3.38E2,3E0,6.5E1,4E0,1E0,2.8E1,5.48E2,1.05E2,8E1,1.068E3,2.624E3,3.05E3,1.934E3,2.6667E4,1.53E2,2.09366E5,5.57E3,6.917E3,8.162E3,6.85E2,1.19E2,9.0323E4,5.10012E5,4.11645E5,1.8368E4,2.248E3,3.966E3,4.5378E4,1.218E3,1.709E3,1.0001E4,4.679E3,4.78E2,2.8856E4,1.4179E4,2.8235E4,2.8445E4,2.483E3,1.3E2,1.0224E4,1.06E2,2E0,9.1E1,2.8E1,1.613E3,4E0,6E0,6E0,3.32E2,8E0,5.7E1,2E1,8E0,5.15E2,3.3E1,5.4E1,5.1E1,3.6E1,4.4E1,2.04E2,8.64E2,1.525E3,1.099E3,2.706E3,3.44E2,8.98E2,1.036E3],"tree_param":{"num_deleted":"0","num_feature":"26","num_nodes":"115","size_leaf_vector":"0"}},{"base_weights":[-4.7932337E-3,-4.843366E-3,-3.2390011E-3,-4.8814705E-3,-3.5246094E-3,-4.047006E-3,1.0703463E-2,-4.8275124E-3,-5.565533E-3,-4.3074675E-3,2.0511052E-2,-1.4235241E-3,-6.0998383E-3,2.1609612E-2,3.5936655E-3,-4.765371E-3,-5.4547153E-3,-5.1171985E-3,-9.823148E-3,-4.785739E-3,-1.1242726E-3,1.1513353E-1,-4.9810517E-3,1.807434E-3,-6.434022E-3,-7.88797E-3,-8.5191836E-4,3.069482E-1,1.5479418E-2,6.2037602E-2,-9.991216E-4,-4.83355E-3,-3.0527925E-3,-4.982648E-3,-1.0206418E-2,-6.339721E-3,-4.8849196E-3,-1.705461E-2,-7.5062923E-3,-3.9052698E-3,-5.4611163E-3,1.3881397E-1,-1.6470307E-3,3.1084798E-2,4.1518772E-1,2.2727145E-2,-5.683528E-3,6.8502326E-5,7.211676E-2,-4.6637147E-3,-5.4599423E-2,3.0028825E-3,-1.0463657E-2,-8.441038E-3,1.4637252E-2,1.00593016E-1,3.0774845E-2,2.2621516E-2,1.2192705E-2,1.596811E-1,-1.9282652E-2,-1.40512595E-2,1.8342478E-2,-1.6290757E-3,-1.4315844E-3,-1.4287164E-3,6.009061E-3,-1.4802858E-3,-1.6659686E-3,-3.7839268E-3,-2.3231197E-3,-2.1676668E-3,-1.5072043E-3,-1.3645967E-3,-1.5400295E-3,-5.5104964E-3,-3.6601294E-3,-1.5914534E-3,-2.8673436E-3,1.2368585E-3,-1.268373E-3,-1.4797357E-3,-2.429831E-3,1.399573E-1,-3.4645754E-3,-1.233118E-3,3.0818689E-3,-2.4809176E-3,4.4791322E-2,4.2989973E-2,2.1963532E-1,-5.118411E-3,9.605902E-2,-1.4164067E-3,-3.0323467E-3,-3.2195743E-4,1.8189618E-2,1.0488083E-2,5.9440445E-2,-2.5881063E-3,1.5340592E-3,-8.881207E-3,-5.0407257E-2,-1.1054697E-3,1.2910381E-1,-2.5752322E-3,-8.094041E-3,-1.5827935E-3,-9.143437E-3,1.2528287E-3,1.5106152E-1,1.0588011E-2,-1.5259883E-4,3.0942678E-3,5.0262385E-3,1.5845282E-1,4.0158413E-2,-6.890689E-3,1.1973328E-2,-9.09206E-3,2.3187201E-2,1.4862923E-2,-4.7516237E-6],"categories":[],"categories_nodes":[],"categories_segments":[],"categories_sizes":[],"default_left":[0,0,0,0,0,0,0,0,0,0,0,0,0,0,0,0,0,0,0,0,0,0,0,0,0,0,0,0,0,0,0,0,0,0,0,0,0,0,0,0,0,0,0,0,0,0,0,0,0,0,0,0,0,0,0,0,0,0,0,0,0,0,0,0,0,0,0,0,0,0,0,0,0,0,0,0,0,0,0,0,0,0,0,0,0,0,0,0,0,0,0,0,0,0,0,0,0,0,0,0,0,0,0,0,0,0,0,0,0,0,0,0,0,0,0,0,0,0,0,0,0,0,0],"id":13,"left_children":[1,3,5,7,9,11,13,15,17,19,21,23,25,27,29,31,33,35,37,39,41,43,45,47,49,51,53,55,57,59,61,63,65,67,69,71,73,75,77,79,81,83,85,87,89,91,93,95,97,99,101,103,105,107,109,-1,-1,111,113,115,117,119,121,-1,-1,-1,-1,-1,-1,-1,-1,-1,-1,-1,-1,-1,-1,-1,-1,-1,-1,-1,-1,-1,-1,-1,-1,-1,-1,-1,-1,-1,-1,-1,-1,-1,-1,-1,-1,-1,-1,-1,-1,-1,-1,-1,-1,-1,-1,-1,-1,-1,-1,-1,-1,-1,-1,-1,-1,-1,-1,-1,-1],"loss_changes":[1.15448E-1,7.212448E-2,5.217409E-1,5.1475525E-2,7.5877035E-1,2.357338E-1,1.966426E-1,5.0380707E-2,1.9466257E-1,5.944401E-2,3.0687978E0,3.1111005E-1,2.3043531E-1,1.7461789E0,4.1262445E-1,1.373806E-1,2.6144576E-1,2.6176214E-2,1.6267312E-1,2.016586E-2,3.734596E-1,6.7962713E0,1.96519E-2,1.4285175E0,6.4215124E-1,5.1382136E-1,7.338655E-1,8.732295E-2,2.2752225E-2,8.9240324E-1,3.6025032E-1,4.157257E-2,1.7780818E0,2.8989315E-3,6.2335968E-2,1.7133832E-2,6.458044E-3,1.4806449E-2,3.3193856E-2,3.8196906E-2,2.6752472E-2,9.416195E-1,1.4932421E-1,9.875596E-1,4.979083E0,3.013598E-1,4.1198134E-3,7.885259E-1,1.3135066E0,2.8168064E-1,7.519968E-1,1.001594E1,4.596163E-1,2.920863E-1,1.0497907E1,0E0,0E0,9.029341E-2,5.602397E-3,4.1453385E-1,1.4445523E-2,1.2674075E0,3.293553E-1,0E0,0E0,0E0,0E0,0E0,0E0,0E0,0E0,0E0,0E0,0E0,0E0,0E0,0E0,0E0,0E0,0E0,0E0,0E0,0E0,0E0,0E0,0E0,0E0,0E0,0E0,0E0,0E0,0E0,0E0,0E0,0E0,0E0,0E0,0E0,0E0,0E0,0E0,0E0,0E0,0E0,0E0,0E0,0E0,0E0,0E0,0E0,0E0,0E0,0E0,0E0,0E0,0E0,0E0,0E0,0E0,0E0,0E0,0E0,0E0],"parents":[2147483647,0,0,1,1,2,2,3,3,4,4,5,5,6,6,7,7,8,8,9,9,10,10,11,11,12,12,13,13,14,14,15,15,16,16,17,17,18,18,19,19,20,20,21,21,22,22,23,23,24,24,25,25,26,26,27,27,28,28,29,29,30,30,31,31,32,32,33,33,34,34,35,35,36,36,37,37,38,38,39,39,40,40,41,41,42,42,43,43,44,44,45,45,46,46,47,47,48,48,49,49,50,50,51,51,52,52,53,53,54,54,57,57,58,58,59,59,60,60,61,61,62,62],"right_children":[2,4,6,8,10,12,14,16,18,20,22,24,26,28,30,32,34,36,38,40,42,44,46,48,50,52,54,56,58,60,62,64,66,68,70,72,74,76,78,80,82,84,86,88,90,92,94,96,98,100,102,104,106,108,110,-1,-1,112,114,116,118,120,122,-1,-1,-1,-1,-1,-1,-1,-1,-1,-1,-1,-1,-1,-1,-1,-1,-1,-1,-1,-1,-1,-1,-1,-1,-1,-1,-1,-1,-1,-1,-1,-1,-1,-1,-1,-1,-1,-1,-1,-1,-1,-1,-1,-1,-1,-1,-1,-1,-1,-1,-1,-1,-1,-1,-1,-1,-1,-1,-1,-1],"split_conditions":[2.3883E2,1E0,1E0,1E0,9.96E0,2.401E3,1E0,7.9242E4,2.2E1,8.76E0,1.25E1,5.3E1,5.3E1,2.6161E2,2.8E1,6.5312E4,2.2E1,4E0,3.412E3,2.317E3,6.9E1,2.2E1,1.36E1,1E0,1E0,1.2E1,1.2E1,1E1,2.9497E2,2.9497E2,2.9497E2,2.8E1,2.2E1,1E0,2.3E1,2.405E1,6.55E0,2.537E1,6.55E0,7.005E3,2.2E1,6.06E2,2.2E1,1.038E1,1.038E1,8.6954E4,2.2E1,1E0,3.1472E4,1.2E1,2.2E1,1E0,1E0,1E0,1E0,1.00593016E-1,3.0774845E-2,5.3E1,1.3683E4,2.6161E2,8E0,5.3E1,5.3E1,-1.6290757E-3,-1.4315844E-3,-1.4287164E-3,6.009061E-3,-1.4802858E-3,-1.6659686E-3,-3.7839268E-3,-2.3231197E-3,-2.1676668E-3,-1.5072043E-3,-1.3645967E-3,-1.5400295E-3,-5.5104964E-3,-3.6601294E-3,-1.5914534E-3,-2.8673436E-3,1.2368585E-3,-1.268373E-3,-1.4797357E-3,-2.429831E-3,1.399573E-1,-3.4645754E-3,-1.233118E-3,3.0818689E-3,-2.4809176E-3,4.4791322E-2,4.2989973E-2,2.1963532E-1,-5.118411E-3,9.605902E-2,-1.4164067E-3,-3.0323467E-3,-3.2195743E-4,1.8189618E-2,1.0488083E-2,5.9440445E-2,-2.5881063E-3,1.5340592E-3,-8.881207E-3,-5.0407257E-2,-1.1054697E-3,1.2910381E-1,-2.5752322E-3,-8.094041E-3,-1.5827935E-3,-9.143437E-3,1.2528287E-3,1.5106152E-1,1.0588011E-2,-1.5259883E-4,3.0942678E-3,5.0262385E-3,1.5845282E-1,4.0158413E-2,-6.890689E-3,1.1973328E-2,-9.09206E-3,2.3187201E-2,1.4862923E-2,-4.7516237E-6],"split_indices":[0,19,7,11,0,2,22,4,24,0,0,3,3,0,3,4,24,24,4,2,4,24,0,8,8,24,24,24,0,0,0,3,24,13,24,0,0,0,0,1,24,2,24,0,0,2,24,12,4,24,24,12,12,12,12,0,0,3,4,0,24,3,3,0,0,0,0,0,0,0,0,0,0,0,0,0,0,0,0,0,0,0,0,0,0,0,0,0,0,0,0,0,0,0,0,0,0,0,0,0,0,0,0,0,0,0,0,0,0,0,0,0,0,0,0,0,0,0,0,0,0,0,0],"split_type":[0,0,0,0,0,0,0,0,0,0,0,0,0,0,0,0,0,0,0,0,0,0,0,0,0,0,0,0,0,0,0,0,0,0,0,0,0,0,0,0,0,0,0,0,0,0,0,0,0,0,0,0,0,0,0,0,0,0,0,0,0,0,0,0,0,0,0,0,0,0,0,0,0,0,0,0,0,0,0,0,0,0,0,0,0,0,0,0,0,0,0,0,0,0,0,0,0,0,0,0,0,0,0,0,0,0,0,0,0,0,0,0,0,0,0,0,0,0,0,0,0,0,0],"sum_hessian":[1.481915E6,1.435607E6,4.6308E4,1.395288E6,4.0319E4,4.3772E4,2.536E3,1.293283E6,1.02005E5,3.9048E4,1.271E3,1.9216E4,2.4556E4,1E3,1.536E3,1.176707E6,1.16576E5,9.2289E4,9.716E3,3.3947E4,5.101E3,2.69E2,1.002E3,1.1683E4,7.533E3,1.8315E4,6.241E3,2E1,9.8E2,1.11E2,1.425E3,1.131653E6,4.5054E4,1.06043E5,1.0533E4,1.4731E4,7.7558E4,2.356E3,7.36E3,1.4739E4,1.9208E4,1.8E1,5.083E3,2.11E2,5.8E1,2.4E1,9.78E2,1.1402E4,2.81E2,7.267E3,2.66E2,3.503E3,1.4812E4,4.189E3,2.052E3,1.7E1,3E0,3.07E2,6.73E2,5E1,6.1E1,8.51E2,5.74E2,1.05889E5,1.025764E6,4.1948E4,3.106E3,9.7766E4,8.277E3,5.325E3,5.208E3,8.801E3,5.93E3,3.2968E4,4.459E4,1.852E3,5.04E2,3.552E3,3.808E3,5.69E2,1.417E4,1.6004E4,3.204E3,5E0,1.3E1,4.213E3,8.7E2,1.59E2,5.2E1,3.2E1,2.6E1,2.2E1,2E0,8.05E2,1.73E2,1.1192E4,2.1E2,2.18E2,6.3E1,5.171E3,2.096E3,2.19E2,4.7E1,3.45E3,5.3E1,1.33E4,1.512E3,3.664E3,5.25E2,2.01E3,4.2E1,1.98E2,1.09E2,4.79E2,1.94E2,2E0,4.8E1,5.8E1,3E0,7.23E2,1.28E2,2.12E2,3.62E2],"tree_param":{"num_deleted":"0","num_feature":"26","num_nodes":"123","size_leaf_vector":"0"}},{"base_weights":[-3.354476E-3,-3.3760655E-3,-6.1602873E-4,-3.315818E-3,-3.9473544E-3,8.535319E-4,-2.177259E-2,-3.3813575E-3,-2.69197E-3,-3.860781E-3,-4.2154104E-2,8.367322E-3,-4.0247324E-3,-4.915849E-3,-3.8482543E-2,-3.4369053E-3,-2.9921848E-3,-5.509388E-3,-8.4535085E-4,-4.1084327E-3,9.166833E-3,-1.860196E-2,-1.2653568E-1,7.7293046E-2,5.5241967E-3,-9.438464E-3,8.132765E-3,-2.59645E-2,2.1924407E-3,-4.821526E-2,-2.900298E-2,-3.459779E-3,-2.6463424E-3,9.2407644E-2,-3.4083237E-3,-6.5889903E-3,6.4874375E-3,2.718755E-2,-3.2994149E-3,-3.3516318E-3,-7.911248E-3,-5.5101593E-3,6.417554E-2,-1.1961432E-1,-6.7942664E-3,-1.1966229E-2,-2.5115794E-1,-1.653928E-3,1.6107403E-1,2.6998512E-2,1.3141457E-3,-6.411288E-3,-4.665752E-2,-7.1289167E-3,2.2897583E-2,-2.7062451E-2,-2.3612935E-2,7.7837566E-3,-2.0511508E-2,-4.061404E-2,-6.099631E-2,-2.0872813E-2,-4.032756E-2,-1.0285189E-3,-1.1784547E-3,-1.0586295E-3,2.420872E-3,2.1436088E-2,5.7572875E-2,-8.598255E-3,-1.0201617E-3,-2.3800957E-3,3.9826828E-4,2.029861E-4,1.8984438E-1,3.0420715E-2,3.16464E-3,-1.2510266E-3,6.2180025E-4,-1.1688999E-3,-9.3740126E-4,-4.149089E-3,-1.638092E-3,-5.2856393E-3,3.7890454E-3,-1.9320609E-2,3.8856436E-2,-4.9686234E-2,-3.1116389E-2,-4.6927277E-3,1.0289498E-2,9.0598024E-2,-2.1137916E-2,-8.582371E-2,-3.7874553E-2,7.739831E-2,-5.1268484E-3,2.1390852E-2,7.606537E-2,1.5921742E-2,-2.1345315E-3,-1.5716503E-3,4.8868E-3,9.343066E-3,-4.0406696E-3,-8.381955E-2,-5.252194E-3,2.6096473E-6,-6.9969427E-3,3.4053184E-2,1.1500394E-3,-9.4414875E-3,-2.5112173E-3,-1.8611146E-2,2.698743E-3,-3.1928252E-2,-5.3852785E-4,-1.670115E-2,-8.6638296E-4,-2.8507875E-2,-1.112959E-2,-8.709969E-3,-1.2678055E-3,-3.2480578E-3,-1.2283555E-2],"categories":[],"categories_nodes":[],"categories_segments":[],"categories_sizes":[],"default_left":[0,0,0,0,0,0,0,0,0,0,0,0,0,0,0,0,0,0,0,0,0,0,0,0,0,0,0,0,0,0,0,0,0,0,0,0,0,0,0,0,0,0,0,0,0,0,0,0,0,0,0,0,0,0,0,0,0,0,0,0,0,0,0,0,0,0,0,0,0,0,0,0,0,0,0,0,0,0,0,0,0,0,0,0,0,0,0,0,0,0,0,0,0,0,0,0,0,0,0,0,0,0,0,0,0,0,0,0,0,0,0,0,0,0,0,0,0,0,0,0,0,0,0,0,0],"id":14,"left_children":[1,3,5,7,9,11,13,15,17,19,21,23,25,27,29,31,33,35,37,39,41,43,45,47,49,51,53,55,57,59,61,63,65,67,69,71,73,75,77,79,81,83,85,87,89,91,93,95,97,99,101,103,105,107,109,-1,111,113,115,117,119,121,123,-1,-1,-1,-1,-1,-1,-1,-1,-1,-1,-1,-1,-1,-1,-1,-1,-1,-1,-1,-1,-1,-1,-1,-1,-1,-1,-1,-1,-1,-1,-1,-1,-1,-1,-1,-1,-1,-1,-1,-1,-1,-1,-1,-1,-1,-1,-1,-1,-1,-1,-1,-1,-1,-1,-1,-1,-1,-1,-1,-1,-1,-1],"loss_changes":[8.761215E-2,5.0592422E-2,3.6045483E-1,5.4371834E-2,4.6377563E-1,3.9740247E-1,2.1191242E-1,2.6008606E-2,6.578921E-1,4.5154357E-1,6.276417E-1,8.359494E-1,4.3276054E-1,5.631401E-2,3.347665E-2,1.90382E-2,5.9689503E0,6.4848757E-1,5.255167E0,3.9522004E-1,2.1083767E0,2.9617536E-1,9.821701E-1,1.1180756E0,3.7063715E-1,5.122305E-1,4.566939E-1,1.2221865E-2,3.595813E-2,1.5495777E-2,1.7019987E-2,1.5034676E-2,2.801332E-1,1.3477697E0,2.9331207E-2,4.889711E-1,1.5045152E1,7.5919743E0,3.2854432E-1,1.4148235E-2,3.3060253E-1,4.5314997E-1,4.6294518E0,1.8323362E-3,8.1981495E-2,7.007683E-1,1.0782766E-1,3.57097E-1,6.626675E-1,5.981062E-1,3.365803E-1,1.1157389E0,2.31539E0,1.1524159E-1,1.7788463E0,0E0,1.0876454E-2,1.9768322E-2,8.985916E-2,6.743382E-2,5.0961494E-2,1.5499454E-2,1.014322E-3,0E0,0E0,0E0,0E0,0E0,0E0,0E0,0E0,0E0,0E0,0E0,0E0,0E0,0E0,0E0,0E0,0E0,0E0,0E0,0E0,0E0,0E0,0E0,0E0,0E0,0E0,0E0,0E0,0E0,0E0,0E0,0E0,0E0,0E0,0E0,0E0,0E0,0E0,0E0,0E0,0E0,0E0,0E0,0E0,0E0,0E0,0E0,0E0,0E0,0E0,0E0,0E0,0E0,0E0,0E0,0E0,0E0,0E0,0E0,0E0,0E0,0E0],"parents":[2147483647,0,0,1,1,2,2,3,3,4,4,5,5,6,6,7,7,8,8,9,9,10,10,11,11,12,12,13,13,14,14,15,15,16,16,17,17,18,18,19,19,20,20,21,21,22,22,23,23,24,24,25,25,26,26,27,27,28,28,29,29,30,30,31,31,32,32,33,33,34,34,35,35,36,36,37,37,38,38,39,39,40,40,41,41,42,42,43,43,44,44,45,45,46,46,47,47,48,48,49,49,50,50,51,51,52,52,53,53,54,54,56,56,57,57,58,58,59,59,60,60,61,61,62,62],"right_children":[2,4,6,8,10,12,14,16,18,20,22,24,26,28,30,32,34,36,38,40,42,44,46,48,50,52,54,56,58,60,62,64,66,68,70,72,74,76,78,80,82,84,86,88,90,92,94,96,98,100,102,104,106,108,110,-1,112,114,116,118,120,122,124,-1,-1,-1,-1,-1,-1,-1,-1,-1,-1,-1,-1,-1,-1,-1,-1,-1,-1,-1,-1,-1,-1,-1,-1,-1,-1,-1,-1,-1,-1,-1,-1,-1,-1,-1,-1,-1,-1,-1,-1,-1,-1,-1,-1,-1,-1,-1,-1,-1,-1,-1,-1,-1,-1,-1,-1,-1,-1,-1,-1,-1,-1],"split_conditions":[6.2625E2,1E0,1E0,2.2E1,2.9497E2,2.401E3,5.3E1,1E0,1.649E1,1.9413E2,2.2E1,2.7E1,5.3E1,9.2059E2,1.8E1,2.3883E2,2.208E1,1E0,2.208E1,2.2E1,2.2E1,2.153E3,2.258E3,1E0,1.6362E4,1E0,1.2E1,2.81E2,2.2E1,3.1916E4,3.1472E4,1E0,1E0,4E0,2.339E1,1E0,5.3E1,2.859E3,1E0,2.47E1,2.47E1,2.1713E4,1E0,5.71E2,5.8346E4,8.7E2,7.196E4,1.4E1,3.131E3,5.3E1,1E0,1.2E1,1.1E1,1E0,2.2E1,-2.7062451E-2,1E0,2.1E1,3E1,1.6119E4,5.437E4,1.6793E4,3.529658E2,-1.0285189E-3,-1.1784547E-3,-1.0586295E-3,2.420872E-3,2.1436088E-2,5.7572875E-2,-8.598255E-3,-1.0201617E-3,-2.3800957E-3,3.9826828E-4,2.029861E-4,1.8984438E-1,3.0420715E-2,3.16464E-3,-1.2510266E-3,6.2180025E-4,-1.1688999E-3,-9.3740126E-4,-4.149089E-3,-1.638092E-3,-5.2856393E-3,3.7890454E-3,-1.9320609E-2,3.8856436E-2,-4.9686234E-2,-3.1116389E-2,-4.6927277E-3,1.0289498E-2,9.0598024E-2,-2.1137916E-2,-8.582371E-2,-3.7874553E-2,7.739831E-2,-5.1268484E-3,2.1390852E-2,7.606537E-2,1.5921742E-2,-2.1345315E-3,-1.5716503E-3,4.8868E-3,9.343066E-3,-4.0406696E-3,-8.381955E-2,-5.252194E-3,2.6096473E-6,-6.9969427E-3,3.4053184E-2,1.1500394E-3,-9.4414875E-3,-2.5112173E-3,-1.8611146E-2,2.698743E-3,-3.1928252E-2,-5.3852785E-4,-1.670115E-2,-8.6638296E-4,-2.8507875E-2,-1.112959E-2,-8.709969E-3,-1.2678055E-3,-3.2480578E-3,-1.2283555E-2],"split_indices":[0,8,19,24,0,2,3,6,0,0,24,3,3,0,24,0,0,16,0,24,24,4,2,22,1,16,24,4,24,4,4,17,7,24,0,19,3,4,13,0,0,4,22,4,4,4,1,24,4,3,9,24,24,11,24,0,22,3,3,4,4,4,5,0,0,0,0,0,0,0,0,0,0,0,0,0,0,0,0,0,0,0,0,0,0,0,0,0,0,0,0,0,0,0,0,0,0,0,0,0,0,0,0,0,0,0,0,0,0,0,0,0,0,0,0,0,0,0,0,0,0,0,0,0,0],"split_type":[0,0,0,0,0,0,0,0,0,0,0,0,0,0,0,0,0,0,0,0,0,0,0,0,0,0,0,0,0,0,0,0,0,0,0,0,0,0,0,0,0,0,0,0,0,0,0,0,0,0,0,0,0,0,0,0,0,0,0,0,0,0,0,0,0,0,0,0,0,0,0,0,0,0,0,0,0,0,0,0,0,0,0,0,0,0,0,0,0,0,0,0,0,0,0,0,0,0,0,0,0,0,0,0,0,0,0,0,0,0,0,0,0,0,0,0,0,0,0,0,0,0,0,0,0],"sum_hessian":[1.481915E6,1.470323E6,1.1592E4,1.330063E6,1.4026E5,1.084E4,7.52E2,1.203611E6,1.26452E5,1.39944E5,3.16E2,4.267E3,6.573E3,3.75E2,3.77E2,1.053267E6,1.50344E5,5.0065E4,7.6387E4,1.37334E5,2.61E3,2.48E2,6.8E1,1.68E2,4.099E3,4.548E3,2.025E3,9.4E1,2.81E2,1.84E2,1.93E2,1.023646E6,2.9621E4,6.52E2,1.49692E5,4.5932E4,4.133E3,6.148E3,7.0239E4,1.14541E5,2.2793E4,2.061E3,5.49E2,2.5E1,2.23E2,3.6E1,3.2E1,8.7E1,8.1E1,6.71E2,3.428E3,4.207E3,3.41E2,9.96E2,1.029E3,2E0,9.2E1,2.26E2,5.5E1,1.18E2,6.6E1,1.14E2,7.9E1,9.59376E5,6.427E4,2.7368E4,2.253E3,5.4E2,1.12E2,4.5E1,1.49647E5,3.9263E4,6.669E3,4.096E3,3.7E1,1.125E3,5.023E3,6.0443E4,9.796E3,3.3684E4,8.0857E4,6.673E3,1.612E4,1.236E3,8.25E2,1.85E2,3.64E2,4E0,2.1E1,1.84E2,3.9E1,5E0,3.1E1,2.4E1,8E0,4E0,8.3E1,4.2E1,3.9E1,3.8E2,2.91E2,2.385E3,1.043E3,6.65E2,3.542E3,3.7E1,3.04E2,6.92E2,3.04E2,1.78E2,8.51E2,6E1,3.2E1,3E0,2.23E2,9E0,4.6E1,8.4E1,3.4E1,2.6E1,4E1,7.6E1,3.8E1,2E0,7.7E1],"tree_param":{"num_deleted":"0","num_feature":"26","num_nodes":"125","size_leaf_vector":"0"}},